1182 50
mammal.n.01 0.004160579953652856 -0.006585380821738854 0.002016609885274719 0.008782593913292855 -0.0026099568525746607 -0.008990564846052804 -7.19011190812328e-05 0.00859175756531447 0.003920355551992027 0.005177812088080684 0.008675497391276052 0.005437121068952464 0.010845647574974684 0.00103881050874598 0.004567823276792462 0.00914185655271501 -0.01707761759341969 -0.00043188034347925973 -0.0035506843867986766 0.001565108947585615 0.006217473878898474 0.0010475625801742616 -0.0010083548940097021 0.00793249463698815 -0.0057749926487846645 0.0024682492110461828 -0.008157974374270061 0.003820957068983001 0.005821456013066201 0.0004118360223459197 0.0035700114095259944 0.012010310744415297 0.002703939712935596 0.003740980077255327 -0.0034199578981505305 0.009257628205664732 -0.0022226739714679357 -0.003058290706627011 -0.014882775478883514 1.6590705817963892e-05 -0.00497132653621828 3.9442624484129114e-05 0.003313994222712575 -0.003764957573857892 0.01209910652635661 -0.008633031396402053 0.013563684749626917 0.0007077619688311242 0.008492937354779316 -0.0072503894010435025
placental.n.01 0.0020498734409310944 -0.00046010062600671886 0.01010186037075193 0.003755636540095664 -0.004002742691932265 -0.005190656669699725 -0.0037463263352138206 0.004832406535052365 -0.00818428320746864 0.0023851589908480226 0.001125069686540566 0.0004192636545345815 -0.0026582811458724723 0.006147598775034553 0.006971023860965589 -0.008842409948079173 -0.011255701491417865 0.0014926343823952752 0.004429356235392665 -0.0045873931852393746 -0.0017711167961691416 -0.002652120192214267 -0.004108738195286576 -0.00577571775244062 -0.0057086389274731315 -0.010503364814210228 -0.0023145651065225497 -0.010467499184795226 0.008731528157270636 0.004608191369174553 -0.002397348423567476 -0.0008334079963184895 0.0004464045862472704 0.007321855202718908 -0.011188830814134548 -0.0121105558533647 0.004678427993559891 -0.0071285917090526734 -0.009428746853525793 -0.0034969440645736347 0.00713839160621259 -0.0012137281267567798 -0.0019735553463469126 -0.002344527080765965 -0.005242871103606281 0.004115776967232957 -0.0059756937001591535 -0.0038082026273024237 0.0065851049757029555 0.0011712871434304108
carnivore.n.01 -0.012965189725133426 -0.04399365882752288 -0.11963543306873536 -0.0366887004478416 -0.08426651296788469 -0.04461332432861882 0.014010375424715308 0.041052861477200116 0.04720218564812287 -0.038355897048842985 -0.22485567670330128 0.15219103378220175 0.03382517448339299 0.09264775186309551 -0.13458530744383573 -0.16657526483189214 -0.09220142003523343 -0.010245713506075902 -0.10168520838864709 -0.10638856785671764 -0.05841533772151612 -0.16902304580720467 -0.042548048557820725 -0.048373041763076954 -0.04319465590018429 -0.04834148037391777 0.04765124444909475 -0.2182093707095388 0.045901660096019516 0.08962771808179178 0.07426603853022527 -0.03167535483532669 -0.048165905054811935 0.10661205679844404 -0.07386280090229205 -0.14144534923883043 0.08212342096170487 0.007199167570448744 -0.06327213407852869 -0.1192241459104123 0.20205900413964958 -0.06278279985851593 -0.13226443535159496 0.08388829806512496 -0.09349342192265578 0.0317532240459955 -0.15996904153234628 0.10702155498734653 0.14513268447256153 0.07466342168148218
ungulate.n.01 -0.023372242480477808 0.13612972310806776 0.06309358731005826 -0.06140256300640713 0.1444417137978517 -0.003510144898301353 0.04996005602033071 -0.07047660295342416 -0.009950875176147943 -0.0011405731435067728 0.13596802184612877 -0.09132001559622602 -0.10335725869738524 -0.04886327468275847 0.16796250240084598 0.1220580805845382 0.10404644408195693 -0.03522396513805766 0.10578113834767129 0.26766750334577677 -0.013815087215380004 0.13007960532770127 0.03131197899900582 0.1662711985119109 0.1264064760668188 0.1481972582472739 0.012337754416950897 0.22530705111404312 -0.07687256967103809 -0.06619130208066633 -0.11040433031420448 -0.07871001681402352 0.005531130198038054 -0.002207657999951701 0.07264730958633071 0.19749505880263607 -0.104251871344181 0.03726020316073844 0.06558542104479859 0.008199951989410863 -0.18316752916734552 0.048067106222065684 0.1561309961612496 -0.15579896160069884 0.20504474651608035 -0.04338011091321671 0.019325466775216953 -0.191844021739644 -0.012710966493319584 -0.046130187160858885
canine.n.02 0.03546463838501873 -0.013222992666900328 -0.01848127497010014 -0.02705392147420771 -0.08901107338570716 -0.02892034427079994 -0.004900337746793204 -0.018715195223248958 -0.003995070722219455 -0.0911839797652415 -0.31093883593963356 0.22322601881147527 -0.028230129139822625 0.12211691259782473 -0.08606371649126855 -0.24866321578832665 -0.07439847720465388 -0.02926085802730756 -0.03616356747300204 -0.07482944212274284 -0.02278621725852241 -0.16826491680639039 -0.008650506011381336 -0.0531900836793168 -0.051103299034727837 -0.0962142861247794 0.16315918899032006 -0.32252733220451946 0.059731620982018944 0.011338480860206383 -0.023364475978129143 0.03160499352436655 -0.09003910301062812 0.09059978187564832 -0.12204366753128679 -0.19146302413001007 0.12405572216384356 0.036443309156817455 -0.011672274319266372 -0.14994401992994336 0.22534312635400186 -0.07083790178379105 -0.14690850214616893 0.09263561292314189 -0.1786119327750719 0.032050760489179014 -0.21838487794653752 0.1275325222228137 0.14257298363316154 0.0771714215930253
dog.n.01 0.013349819277415579 0.022248661512224717 -0.0070906587523900996 -0.04119351598757999 -0.0876962300641217 -0.013779670646860451 0.014290862869201174 -0.019595814919965676 -0.00037596955303610295 -0.09387099778856277 -0.2986156991722052 0.22706133175917242 -0.03557993528930372 0.11439840100126741 -0.09425530358373391 -0.25585467706844817 -0.08478643251842663 -0.0434956593292828 -0.0333208107467383 -0.05637112895640822 -0.039098343968582285 -0.1796454548475529 -0.04500957383599458 -0.036875570828349774 -0.034749252911634713 -0.08123523097703055 0.17308605273733713 -0.3195253217898386 0.04219528795269332 0.0024360390315468035 -0.019244061083476868 0.02657673850486852 -0.10031473199363229 0.07993489532019342 -0.11659625899384182 -0.17738738640267318 0.12414029035477851 0.013560255398633666 -0.015291658246686482 -0.14387530534126747 0.21503237751332532 -0.06525542878412796 -0.1458696118406471 0.0966191092747283 -0.18991479014444423 0.027066049690340845 -0.18947564966542274 0.10524781260577702 0.13961318003826256 0.0794220665212434
even-toed_ungulate.n.01 -0.20486719221431507 0.08431056192132959 0.11814088948483958 0.016648831019195644 0.07740432602248985 -0.022694589890381416 0.06240599381222529 -0.08564488498415765 0.011632332035199587 -0.020781610486750476 0.10947473127044499 -0.044437668186922435 -0.14229242032978776 -0.07721418745677272 0.19351066662044708 0.2004395642499902 -0.01195779407883627 0.04036866000827546 0.14761959397516208 0.3447036437665348 -0.06385150367257535 0.07725547881710972 0.034916278864868464 0.14349269379706475 0.16621364274747807 0.10343797105603311 -0.002679044922136504 0.1868236320666363 -0.0703855612519407 -0.04671679033088632 -0.10922396445225557 -0.13840579743768547 -0.08292097569003797 -0.03559088108470661 0.14415125988581765 0.0994119482242286 -0.07261490133654194 0.08431919372158038 -0.11944053730212491 -0.0012026465298402864 -0.09671151946225351 0.09778325184425261 0.14045252698343108 -0.08604034231477486 0.23884829776605368 -0.007687319063167614 0.05399863668423859 -0.2210524707885549 -0.02637551482908921 -0.041354958789277654
ruminant.n.01 -0.2025365849284909 0.07681303978479496 0.11730592901432706 0.02024478640494667 0.07710398886850517 -0.03390421158666237 0.051415159542420166 -0.08833169963983066 0.021634452603801094 -0.036681617112550836 0.10038077421279136 -0.042359489492871896 -0.13243975863280016 -0.07762314174445596 0.1949371586619631 0.20470823419799483 -0.028703755981504625 0.024758954984415014 0.13497904248367096 0.3509427511664585 -0.06271632568635638 0.07688141582334428 0.03938772879857564 0.13825880714920935 0.17420485884793271 0.10125169539449123 -0.0013700991767883587 0.19778163101139207 -0.07750311258068902 -0.05547567893586917 -0.10167473263857893 -0.13344764013866178 -0.07056516114902565 -0.02162808817838721 0.15268695760381626 0.11903662130564072 -0.08047568082583896 0.0684022490316952 -0.14635665812813414 0.018270514092922838 -0.09493016680475815 0.09905474165144026 0.13853472030777753 -0.1000163560796006 0.24326075572264563 -0.016388268686570357 0.045753421459236415 -0.21901208462666671 -0.03300786817183561 -0.05470795907028581
rodent.n.01 0.2417014611507007 0.014720436547202264 0.0808377654279781 0.16399072594741823 -0.1526108736857109 0.0453046404959784 -0.07892411466509712 -0.024096089350410403 -0.08384005676669377 0.0606671683502281 0.16262202936920844 -0.03945134888692776 0.038246007206885445 -0.14766499867062885 0.11377341783083648 0.13138527192567787 0.10455388180487132 0.11894573579480093 -0.01824379987551226 -0.05332033763830189 0.0804485960367873 -0.06189393428376155 -0.21049197379759413 -0.399700419065088 0.02038160257033021 -0.08497647639701426 -0.22795958144800244 0.020644752832947085 -0.040523953683096484 -0.09397392613175663 -0.06309755819400262 0.07834676739795819 0.042833855799693864 -0.18622434815780367 0.03564641840933406 0.05547570953839992 -0.04012531023154895 -0.06351057377614154 -0.08897604502718967 -0.0030310688721523864 0.17260688822596906 -0.06486139176910094 0.1425967174616899 0.07274430685555502 -0.21035526561346335 0.13163402963742787 0.038346311245747 -0.010024613972611332 -0.00023004631032211138 0.039620384353578196
bovid.n.01 -0.2437203250065752 0.07811879123041686 0.13980412640002637 0.05049991508879878 0.08163264125812116 -0.029978097291753224 0.041862392678461334 -0.09117210361857077 0.021033799028004906 -0.006145015348766107 0.10907329451961556 -0.06479190863940672 -0.1395252386035687 -0.05863095885336733 0.2249077875452004 0.20397025527979581 -0.03669204817493029 0.04118069139488762 0.14635418595350932 0.36847398265286585 -0.04730395728626036 0.10420936417461678 0.05046760097332163 0.1600583135910638 0.17599863937144086 0.1029178860311313 0.030886976526918283 0.2120249615160601 -0.0944534912142073 -0.062085321081973746 -0.10491724164617129 -0.12754816798188431 -0.10450376708380774 -0.002192104299464702 0.16717627666805654 0.1368809873646379 -0.0843689919039771 0.08711505323533228 -0.1497762370266846 0.03041504959198804 -0.10718268722867205 0.08618786326348615 0.1077117140303347 -0.13294609800915047 0.23347187908766648 -0.002312824364520951 0.04827521418540495 -0.2262746143041658 -0.07211602999001226 -0.05140786907500723
odd-toed_ungulate.n.01 0.2911163534013583 0.1539548544274064 -0.060725209986051014 -0.15901327339818833 0.19847530833388688 0.02130870360773353 0.015287939266495 -0.014408850560407466 -0.07167203176912308 0.031662652692404356 0.10852260418696735 -0.12014377208566449 0.014538506067123112 0.02475447487998324 0.05408503709007779 -0.09494088753596368 0.2614656958215958 -0.14029020015626636 0.0007527994005771898 -0.031087264038757653 0.10657667520558858 0.15607552409760897 0.015326379776967108 0.13741672115241393 -0.012151384400921422 0.10667718864137964 0.026136733993798712 0.1595205422273609 -0.03450884473531856 -0.06614060025048825 -0.07671240939391503 0.07399656269706004 0.13332970947332817 0.06134169815470094 -0.11770034795352592 0.24889641651814373 -0.10090834156884948 -0.06335030550841225 0.38850276804486505 0.025068583687533723 -0.2332810845907334 -0.06683273607146656 0.09109520537971108 -0.18686610216642524 0.054515373027411815 -0.07693228568824545 -0.04588747594153298 -0.03908202306731941 -0.006612606685021407 -0.04677134973773677
equine.n.01 0.28101380657286573 0.16274189848626833 -0.0561394071072919 -0.15674287352428237 0.2017101863494652 0.011293132112341025 0.00939206691386719 -0.018660347725684385 -0.0749586942068724 0.030438148213288413 0.10367438663077097 -0.10783172270533486 0.01838204745417829 0.024438536864046862 0.047116841069338576 -0.09030226604132341 0.2614976627070367 -0.13506702389059247 0.002648067258813561 -0.029657951303119833 0.10022090271334405 0.15400664545436205 0.016907738980082427 0.15243680806143575 -0.005746809130872655 0.09792771803454625 0.019646775535414843 0.15866167806397866 -0.028934539415999706 -0.06485689620262967 -0.07979226758554134 0.06450835561785183 0.12836836647700142 0.05970427918110017 -0.11383516698093706 0.23535839486401602 -0.09451070227850343 -0.0640186106788703 0.3983625741735642 0.014058554711664768 -0.23440230303004045 -0.07384794316920675 0.09447926628703984 -0.1800611876971548 0.04838240547895194 -0.08181209498757035 -0.052164361412523785 -0.03832953515102286 -0.012366215006304401 -0.04214656507441486
primate.n.02 -0.08575631879030092 -0.12010813818050618 0.09742341869335581 0.2478575368069657 0.016028748741551798 0.028969754664471634 -0.07209380588163891 0.011581403123986105 -0.14737936015454384 -0.030102320284657647 0.16696226759888746 -0.18697085881920672 -0.006434484020424937 0.018216475288236746 0.036240405100305684 -0.06384130722567485 -0.05916649297142997 -0.010028571574894568 0.032971956858661944 -0.19902730516603623 -0.0543952574528319 -0.022494495812068614 0.20768657715480554 0.005117396524428956 -0.028734955826810755 -0.2692972683554903 0.04630308873222564 0.0877430248418694 0.11759506328277256 -0.012579468537767846 0.014384428590754889 0.16177454349741185 -0.02729800555481825 -0.17158156358409113 0.09120384917327419 -0.22298573034153266 0.029193073479878866 -0.11292240877049113 -0.17353580864845675 0.15036427772553815 -0.17673411450593166 -0.03709719700543893 0.028896487346536277 0.029083854712891214 0.015634516784150777 0.0007948640232853589 0.18520427259641262 0.12540270624259556 -0.26016767345082337 -0.11620438213179154
hunting_dog.n.01 0.005092255052190578 -0.027241691792983178 -0.0076071485086086875 -0.05586463245414253 -0.08825140773474026 0.050023752318184934 0.06193539133028424 -0.008394728150573011 -0.01685166946658001 -0.16818898367011126 -0.29875807549181355 0.18819170051665451 -0.09678885684486858 0.09374771010679656 -0.08901159610114129 -0.23333426436390095 -0.07139848519256678 -0.049630419481918625 -0.09289474042236108 -0.07520444337430046 -0.13198743179418462 -0.1599422509904127 -0.03735692720203253 -0.035779126854298654 -0.03071647485203307 -0.030617228186346497 0.1851513884562135 -0.38017839230378553 -0.0012525919240198484 0.03266259306256915 -0.04438791355815939 0.005277221440935184 -0.16860343582932708 0.060619412013381044 -0.13317449602733455 -0.17083248531401313 0.006679231025908608 -0.01985455945824614 -0.05199647825214617 -0.0988880126718761 0.21825755229179947 -0.05021168499814572 -0.15793613587611768 0.12359937083710844 -0.18943264882667005 0.006053305840144514 -0.19336161620002057 0.12844588735751183 0.20562817182148024 0.0609183253331834
horse.n.01 0.2802910844298847 0.18331110212914895 -0.06161484977483272 -0.1354260462474978 0.22983087568603053 0.016863199624700353 -0.008385957873327254 -0.04625030585114802 -0.0898099283186749 0.05099869394198304 0.10089989010058284 -0.08912622233419293 0.018991488605296654 0.02922834965893988 0.040421072899610215 -0.11164971904027012 0.26758265503946177 -0.1354185027737277 0.005091681494382606 -0.045641333872052894 0.08978445477201903 0.16991512553447963 0.04737267782131639 0.1591898620770404 -0.012889182575029577 0.10064660452967242 0.017237929570852333 0.15322200249681264 -0.03108429335524078 -0.05063372552110201 -0.07230054850754611 0.062135856423948053 0.11124575952032666 0.04220027976109995 -0.11931779293710289 0.21486582972777601 -0.094237568541851 -0.050918834879309385 0.40519117600686955 -0.015485791968415522 -0.24466964165806993 -0.07447207416907686 0.09138603544863373 -0.18221221631304943 0.052224916622202674 -0.09138117026270402 -0.04499935153820811 -0.045792877089451296 -0.019183259729411914 -0.05704758224668471
feline.n.01 -0.20100953136652835 -0.04676220027202553 -0.30333691331109525 -0.10326381096408697 -0.08147020928647361 -0.11262106965853028 0.13705980268786408 0.09714851739266697 0.0515127461126277 0.0020197003057793724 -0.03219201192730217 -0.03198860426741209 0.09731613590430753 -0.0452034573080235 -0.23751822450484128 -0.03162051866122758 -0.03063905679639432 0.14425565661693376 -0.2259423694709146 -0.16621524721411346 -0.17480689979944486 -0.1280934169555182 -0.07512129968527799 -0.0574214755812807 -0.04292422003654063 0.06605926601941836 -0.18132799763499993 -0.023863417753086025 -0.03249280689795608 0.29218684169340275 0.295700196550969 -0.18117824619103334 -0.021502816346184738 0.16863751373634875 0.07050864436597892 -0.10542509887012398 0.04054410719924476 0.0351650038685187 -0.06497400330231337 -0.037771525227669564 0.15726853324589338 -0.027989489487665966 -0.12104062384127706 0.13948578737671866 0.11875625081532405 0.051692558137613386 -0.11218006506814436 0.051998603445391756 0.05912623167919616 0.13097034631218882
aquatic_mammal.n.01 0.03995394282806839 -0.14972918420839482 0.1558542393365485 -0.024728343313567627 0.05405594728120884 -0.030119601834436127 -0.06216711451519947 0.07289867202563183 0.12183257603508654 0.07103808998203767 0.11475204474470735 0.09546879529057088 0.1832013195524813 0.04415060698864231 -0.18356423717485484 0.14147309389992935 -0.1923913378738503 0.01892150197738808 -0.0034543544702345433 -0.13643424472548382 0.1804200209835398 0.1422825558200644 -0.047752066320113425 -0.05245883261807934 -0.10892173124974579 0.1377786186335179 -0.042822024130288176 -0.07025667083786633 0.03201186993577499 0.11183604204420289 0.051038816680990244 0.17212238315152792 0.17043716256748262 -0.06791804823062976 -0.04612749846904398 0.12864641770760202 0.23306891684990097 0.03811775726647409 0.013343495625620694 -0.0049015620675416744 -0.14141523620372773 0.12233707956804378 -0.19081945347682414 0.06404883924992667 0.11952921675837963 -0.3749817074706396 0.27712925766107543 0.04560267084436216 0.027221562384188804 -0.21156723213027342
working_dog.n.01 0.07377952464317816 0.0556300708279488 -0.03998887468216448 0.035957628346651824 -0.09483976055213045 -0.07313518632555219 -0.10277505351422803 0.013840531530608312 -0.008106074622227774 0.06920174299893299 -0.2711378402368717 0.24065112709974795 0.10264867442289574 0.1618730356731282 -0.10162656555374548 -0.26434784749614487 -0.10883521776644023 -0.012765238772723394 0.04185946101783401 0.004727962281049593 0.06764148335638853 -0.25775659160440767 -0.10252502809747865 -0.018427173295828242 -0.08449232315230193 -0.12838470273860675 0.14543373549890143 -0.23657958513895855 0.15384675182641558 0.024417788714970072 0.06622020915790951 0.07821350922810061 0.04042938549803356 0.11489953762502961 -0.03925069517796037 -0.15670763002278223 0.26250798950772125 0.056424642342681054 0.014524512854971156 -0.27259728531267774 0.13617749249075478 -0.10368774526892936 -0.09822621576795189 0.03804095666239642 -0.18643678150235343 0.07363569937230642 -0.19046947279474552 0.10079090872827984 -0.026542040900780998 0.10517323429544048
bovine.n.01 -0.2810550556760413 0.013518282914897439 0.07677454877510488 0.0007110108554250358 0.14527658031400373 0.0810288380601348 0.010208732179883587 -0.10266337334722352 0.06397566964793681 0.01918047560390091 0.1643301676596164 -0.04407331106277913 -0.009523250080104172 -0.13003393449026 0.23831202744146193 0.11959937542504002 -0.03409017278166014 0.04266631271326252 0.16986235852506204 0.4121393532747103 -0.14329360271180427 0.0691337157726319 0.09597131576449133 0.14320649541275324 0.1990232334753797 0.10773428942396972 0.06690283231285761 0.23475529623825206 -0.045997174330203235 -0.01128651786185354 -0.04554718824289013 -0.07304294512213072 -0.036527418859743886 0.020186151221943473 0.12595743228931788 0.07413255045235101 -0.12102758201315643 0.1525521657942846 -0.07118536443295101 0.010448968672150012 -0.18351426189503123 0.07082489304902215 0.14570202846630867 -0.15338218132692993 0.23497913204932705 0.01666415661643083 0.06856492379279908 -0.18829478441658073 -0.030998222319396675 -0.0883168749446807
musteline_mammal.n.01 0.08521868486755775 -0.1453489149320016 -0.08899960852651291 0.07099266247991666 -0.10392306712306655 0.034785989085985076 -0.018274908037942274 0.17864302970362758 0.1997231788441113 0.07310981684214884 0.05542523445503766 0.09135773669211704 0.18682929041887508 0.15747198390851597 -0.04704693195813347 -0.003388656063973824 -0.22427118172170296 -0.1985755626981113 -0.24231306365772254 -0.13949117524794782 -0.03133294543827668 -0.08308310034155891 -0.06502036630890907 -0.17270844756631173 -0.09710707909854874 -0.03928033350254193 -0.1453374608425548 -0.1146897734888314 0.0899953480478441 0.12171534086166509 0.11424313770235281 0.053080967007751764 0.15182399974270208 0.10128173628596988 -0.029899818920037867 0.04707725836443638 -0.09397102057788466 -0.16311819827635052 -0.23237284601692493 -0.09735780971120545 0.1804567574372227 -0.04868434915416248 0.07564097760969223 0.015577570599753935 -0.11445840287126617 0.07463682716670203 0.03132097665335047 -0.03495677505417953 0.24203770624782797 -0.003159232757079675
terrier.n.01 0.007848304609884494 0.04078206108624901 -0.08527186762993821 -0.025066053770845746 -0.06927119072275724 0.03370452181073205 0.1155364210077706 0.06067982387764363 0.041514771181330325 -0.15962085567346412 -0.24737847087581616 0.15560922514946052 -0.08686714036576203 0.15219534297826207 -0.13176107078794394 -0.3410874347360955 -0.07765713378773943 0.00434545840821444 -0.07226467036667072 -0.07190763735666877 -0.1514078142562773 -0.10760787457703888 0.00518814284888428 -0.06766236003166683 0.07405834610993572 -0.0036537770287828567 0.12397614284376404 -0.4234449524893474 -0.06702506260320451 -0.014016576884558552 -0.07886231811418055 0.0020061097720895 -0.10739493018790035 0.007968812645648356 -0.09434390380072975 -0.20263501459899264 -0.011534229530332573 0.007194417454740492 0.04192366813180013 -0.13680174665665595 0.16793098722191507 0.0010543956135569189 -0.18474672614323426 0.13356212098793627 -0.1741728043524406 -0.02388253227360105 -0.17129515656628017 0.1098969969698687 0.20917938573699565 0.14381646509913024
cat.n.01 -0.18445550564863103 -0.026996723395571638 -0.341450057493846 -0.10309220448683523 -0.1001748648587257 -0.1258252678070262 0.15678767101691993 0.15753867239320088 0.018786941386032548 0.01278715840280709 -0.019025548445269456 -0.07259301277900555 0.09084584424552698 -0.013922390906203846 -0.2476859959148798 -0.00563526817309126 -0.02720238066576644 0.15728702876427533 -0.22832548787650075 -0.13640316582096326 -0.1824450012732681 -0.12320666662523395 -0.09186232777564032 -0.046192602073432 -0.020213914178580313 0.04467019476813325 -0.12645261181576922 -0.031524519618630474 -0.013289170094359292 0.2814346199005036 0.2794909367709096 -0.15224204285382376 -0.02006028449041931 0.18890992702965206 0.06411425510521655 -0.08862280715166196 0.08857506323472614 0.006627089209542573 -0.10758793552867692 -0.06990224199649368 0.16262295058273737 -0.021733053776477083 -0.09509470841321191 0.1254992120779782 0.12304819739035373 0.061883361290610235 -0.10247949999611672 0.05682090626578266 0.031078876103503694 0.13568473221916474
bat.n.01 -0.1820357918024592 0.01688287512608284 -0.15706748754073432 -0.054510605021880536 -0.05334663691975183 -0.07592678864401269 -0.048973174621006116 -0.02450227578704234 0.1047841652389063 0.15032875940309345 -0.16061879420654626 -0.09445026594150764 0.06242831909165598 -0.029567084428103085 -0.12337104188352409 0.0622794883255716 -0.03629824095776059 0.06327009823905429 -0.016665186802727713 0.028418546239886447 0.21097538355532028 0.26277802486257734 -0.05228258411461052 0.11913348726717826 -0.092354151910548 -0.007881242068878365 0.03418748911563838 -0.09770454380226878 -0.08828513607552574 -0.09311555220459534 0.1521271847281604 0.07511874736100825 -0.009247460966064805 0.1866406499595088 -0.03393813599852941 0.01525614285305427 -0.1860067509962648 0.11672531373447224 0.21115544951121012 0.33415709047989495 -0.11460571749671657 0.3311964597834753 -0.12527373421938082 0.15433853420913027 -0.2408360552578757 0.10046156804145272 0.006007076961161375 0.025241493847211232 -0.10869058596410837 0.009972882306684057
monkey.n.01 -0.05487483660956865 -0.1449403807914545 0.08935238433308108 0.24673071038441055 0.052209231810918875 0.13047956768396193 -0.034790354981248356 -0.09732810571938956 -0.1517381519283722 -0.07198108078812543 0.1691023635853671 -0.21947222118252074 -0.01622260654635296 -0.018583721813953426 -0.052524670212887 -0.12457465571836157 0.03730930600701025 0.013551044709725209 -0.023771227510949382 -0.19518175834431792 -0.10889032610468029 -0.027764148014767752 0.25725737653969927 -0.013176806700293133 -0.014037154745659206 -0.2735516359425408 0.07394053338725158 0.0803498491533777 -0.0041590237458407 -0.07214309220393073 0.026205485968100746 0.1357607345630148 0.024145437501334466 -0.23093256937466075 0.17034598811161672 -0.21498576183846074 -0.006576612602850362 -0.13019989657628092 -0.08870603637154255 0.18122020838335762 -0.13889061266042463 0.042675372856708624 -0.07420128406857908 0.05011941652125579 -0.0024680487718043063 -0.04179556061817465 0.23374701242499818 0.11739387941797555 -0.2531079879035358 -0.15850841956128264
antelope.n.01 -0.22014533181083765 0.14706899643151555 0.14015965712652229 0.04529224151827397 0.0827080536431213 -0.07492486314367292 0.027353226377407922 -0.041095800413696225 0.032606012974762365 -0.009323549124489012 0.06228663739416264 -0.05930236940319109 -0.261675950902646 -0.014174060736301418 0.18066478022876284 0.2097308281619205 -0.02975155286320564 0.004039260784509769 0.15625306958613785 0.2849272698899178 -0.04912682763240383 0.1917038826005117 0.025344586336721507 0.1929719340773805 0.17750689383754575 0.14671743711571708 -0.014006334201063534 0.19745899313028323 -0.09115000900431336 -0.0243183709186834 -0.12857318310047416 -0.17738874468903568 -0.1204216194061118 -0.012423489275776266 0.15430622339941202 0.20119255171831826 -0.142201366293589 0.09325604680082149 -0.09843672964897682 0.0069373493174814714 -0.060692542356734165 0.16886877053080995 0.0789047818431247 -0.12032018471862037 0.2687544749696591 -0.09657886170164552 0.02055828230484348 -0.2390272493009356 -0.04774602385657052 -0.04629374687475227
marsupial.n.01 -0.0059258004203892305 -0.18967995549856173 0.0397544425858058 -0.018931454568760286 -0.0593620149772177 0.16658408308062486 -0.06299664443140446 -0.05307353626804697 0.07078376856589975 -0.06432739212332785 0.013195551015806158 -0.108727504671428 0.21825837668738243 -0.18955035665080797 -0.10873108763074456 0.15822560244163328 -0.08545648594031238 -0.13328620969333987 -0.19132305231348715 -0.14676931400325002 0.17119820286987664 -0.12443395123393965 0.19497523562849203 0.03141189113721467 -0.044312414795337936 0.03601470579139509 -0.05890683542734607 -0.1420954185389813 0.12134638302525268 0.091309065829225 0.16807077081180702 -0.18651198633427607 0.10001553768109155 0.0024949087630263015 0.16503099230811513 0.025242505380647054 -0.20825525590388608 0.032289091992081964 0.23922045902556316 0.19262199444277228 0.07516267098075356 0.04817907258222077 0.0195459374404218 0.022062867759299203 -0.14215268861956368 0.023394029906584943 0.24000567686280433 0.04842801880545792 -0.32222842036242927 -0.102577423554461
metatherian.n.01 -0.005854125464988632 -0.18995036218251043 0.04053896163136458 -0.017712993463453383 -0.061504574446399674 0.16859243263125048 -0.06364020250707182 -0.0548407510532358 0.07029592793395299 -0.06534441094909396 0.013288324582916738 -0.10897812744746117 0.21934680133820136 -0.18901953320879805 -0.10852846143248673 0.15868485726335582 -0.08668429634676066 -0.13427689899911335 -0.19365122737700718 -0.14673996315692003 0.17245421845337894 -0.12574000481967137 0.1956066264685281 0.03279471706125172 -0.044848262198131296 0.03654910965815801 -0.05817355515918791 -0.14367725538625692 0.12062873914172036 0.09188255236094042 0.17014358732287457 -0.18747384691915478 0.1003919706945124 0.002217118874177697 0.16543889536293935 0.024993690526974397 -0.20894921517646725 0.03291158385170848 0.2423636158132844 0.1933386918881778 0.0753737992066307 0.04888646543261264 0.019648243288108037 0.02266995872384479 -0.1427350105262719 0.02298024108126997 0.24268083745667163 0.0482736106663669 -0.32442090865819584 -0.1032179148387051
cattle.n.01 -0.31401423305372417 0.02014039330538141 0.020312238643638906 -0.008648283113975034 0.146211073127974 0.03895253875093318 -0.01611973289956783 -0.10076681100830001 0.05385683360527438 0.027529696881179882 0.15920171695502996 -0.06715331448759383 -0.03053636328742953 -0.12836529521345633 0.23651739130653354 0.12468999454031679 -0.02578072347363595 0.03507031133204063 0.14000677028283454 0.4130104825378616 -0.17011029887212128 0.06687380728114678 0.08896023429791955 0.14807512035844586 0.1987329655516421 0.11458547865968984 0.06116577621274744 0.24608740167873555 -0.041836044865883354 -0.03782843410152052 -0.05184132492912878 -0.08170045551073633 -0.03659886067482246 0.05144147574252773 0.13858177434193059 0.11674293088666124 -0.1070347866433024 0.1341362274006203 -0.08843585606985842 0.022246751833698494 -0.17602853500914828 0.04977078817361911 0.11580417329897086 -0.1617079902236238 0.24193594481274447 -0.004235833341917952 0.061522372383526966 -0.1578351486784281 -0.00623562420390713 -0.12175474095038402
carnivorous_bat.n.01 -0.19013026805832545 0.029207453690070294 -0.16266047190334051 -0.05731111960909215 -0.053274578323537373 -0.0811861598128852 -0.04140141563627897 -0.033370774932692075 0.10195973279417589 0.1487070195938464 -0.16229516004917918 -0.08979433907676332 0.0629570191396555 -0.03243964384444943 -0.11474386349166049 0.05680423864602467 -0.043378063362410735 0.0589094331514522 -0.008132927327645239 0.046851297020740985 0.2167708112656945 0.2495487807268873 -0.0543478824732459 0.11731366884412159 -0.09015394688932966 -0.008031628028905195 0.033920165015783765 -0.11243222007037057 -0.08598548027517959 -0.08053779146467356 0.14913115345649938 0.07610312521935135 -0.005072914834696531 0.1951660628659677 -0.033070746433862146 0.004508956287141318 -0.20439067123905513 0.1294975875436056 0.21099960853461056 0.3389199471968522 -0.12256184422048767 0.32914339556019584 -0.13190888820868613 0.1393416847084728 -0.2329804338314043 0.11696533274181106 0.0029738381116119128 0.012714242841165345 -0.10231948469403823 0.014850433395040472
whale.n.02 0.02393533996888401 -0.16301055691264965 0.15502144146827257 0.004627043388249169 0.11663391725202164 -0.06512541363708278 -0.09878674571340441 0.06523546286322572 0.13674497791265575 0.07052643954559296 0.06338158639941753 0.058783184775317465 0.1983117433706338 0.0051398555286988066 -0.1994373008528265 0.1756945259615104 -0.15223430472920413 0.018700800148740992 -0.00121391732362634 -0.13607973869672643 0.22180622014261986 0.10690758280778714 -0.05726708765329663 0.017769295265467194 -0.09410764298096456 0.1520595313564603 0.009921089556128129 -0.11060435552283422 0.06301515553426774 0.13048685954873318 0.08153976796178446 0.196167320039804 0.1443160786299687 -0.053873010273552145 -0.03128212330341948 0.16005452676343368 0.21769974539490858 0.0217935117725603 0.02886792511874676 -0.029218177391528696 -0.10150417838536617 0.1412511113156812 -0.1898257584638607 0.03958479808919132 0.14325828633442464 -0.3810637667599577 0.294065354426406 0.003989726748385511 0.01617206777359131 -0.24108336462718946
hound.n.01 -0.03370675415945697 -0.029824135303758 -0.014187713812881461 -0.12197783416574225 -0.09392004279103908 0.027264539219228223 -0.013676652325276394 -0.004055575647066921 -0.07181659897225971 -0.09613989816249507 -0.3235118700289696 0.17062089754718068 -0.11032004513367974 0.07978283586523857 -0.08525105770339414 -0.14586720264698816 -0.05423601228480509 -0.01981699612299469 -0.0856654852185484 -0.054124424520824055 -0.04065706728551449 -0.2590057098647906 -0.004212246699590664 -0.004069522246026294 -0.13905375194414052 -0.07061301126451958 0.17605221136113694 -0.2725211276468418 0.019498936482356705 0.011218114479860201 -0.049387068690037575 0.03613929560987843 -0.22028859617725352 0.07963961182740799 -0.14619776853263977 -0.20052271023239587 0.14758450411408053 -0.03578258748508471 -0.038970473471262514 -0.12128030335025104 0.29962092159824033 -0.11978253480175392 -0.14170106832723575 0.0731557845547868 -0.3002616086080913 0.08159295922023646 -0.18696442924858292 0.08313897143579616 0.14012928062954916 -0.032265776975811726
cetacean.n.01 0.0270758276150068 -0.16136448156365066 0.15586349010037204 0.008845637464648119 0.11587951785282187 -0.06653376393815028 -0.09571864121762105 0.0618818432759727 0.13460189625552468 0.06855562920601205 0.05711721173509414 0.06010693445997586 0.1990372181620979 0.007571461117233316 -0.1972368246110624 0.1782871439091196 -0.15352176819801594 0.017006107370920908 -0.00553422380824558 -0.14153637387778759 0.22494262532348927 0.10755896801815976 -0.056392602305214805 0.016991688026708116 -0.09574276160257356 0.1508878028720774 0.010358505338347689 -0.11008479424934035 0.0622889327704217 0.13209028633421047 0.08768553751698227 0.1989609635764582 0.14393121260545275 -0.056462266045057316 -0.026793031429609353 0.1610030623855312 0.21879006735544587 0.023424286803342086 0.02783025831105513 -0.030232752945106387 -0.09656153428424655 0.14388621831328166 -0.1953341694026205 0.03921866448970487 0.14003922470561658 -0.38520437792965884 0.2932466898767074 0.004992208740386049 0.01823710202845407 -0.24087534486414694
sporting_dog.n.01 0.03155443139978942 -0.07029503794679054 0.06705271744588098 -0.0070167169569925305 -0.10354782023772355 0.053906359326933724 0.04572572438436883 -0.08847214570812119 -0.026553177780513935 -0.17978296209148822 -0.2810597246241241 0.2409196929519418 -0.036297396493869274 0.03852435884066621 -0.05736689574889164 -0.1749977289541985 -0.0840242602545042 -0.11486123314237438 -0.10349676304139532 -0.10104351527018846 -0.14625697125557627 -0.11340108082221206 -0.11865986120881446 -0.027316860449541753 -0.05966993199939614 -0.06508007890563705 0.22056170739852224 -0.39798216195276315 0.06793018422761439 0.1119494887574101 0.03563418414445905 0.006297536985394197 -0.1396840359115139 0.10293846104095107 -0.1561255730637105 -0.12181649025770319 -0.02957787113823924 -0.007585460720310542 -0.13712299824897192 -0.05738877827594843 0.19609093915717793 -0.06988297918806427 -0.10682198325229907 0.14292106331518492 -0.08090519350219434 -0.012281053191753332 -0.23429591713082593 0.16793621138470285 0.21416940049750233 0.06416819581429035
hominid.n.01 -0.1395165189457268 -0.04823031537809771 0.13518163863631527 0.1540103149934574 -0.03446148482002606 -0.1714447466636996 -0.13870051384609494 0.01854797043918478 -0.0827610586289458 -0.07357086603781997 0.09628447275164358 -0.26257104105848234 -0.06819855069335952 -0.03851086926809803 0.08550404073101799 0.013641716022106107 -0.2306568402212321 0.0037880798468595987 0.09305741551208806 -0.14242188672184372 0.0474478290912632 -0.072399642636113 0.12826478970086644 0.001103106085421782 -0.023202769832538613 -0.24019475299855894 -0.03875964193026091 0.061855604645582936 0.2529923540806558 0.19256449798570816 0.04692863752974834 0.17500574752135686 -0.058241971162243354 -0.05313818518420512 -0.035352386413063874 -0.06635674746018701 -0.04225023698645344 -0.07018323361550852 -0.298177041844005 0.17922897497993595 -0.19369030068185797 -0.09647597329907302 0.19106287978398714 -0.09982356246414435 -0.009876150374001512 -0.0278673917068939 0.1975511053430233 0.14543513951005704 -0.22668888264029882 -0.0781096096199321
racehorse.n.01 0.3677917447206043 0.18003965427867574 -0.03850655387025977 -0.1509851691993603 0.18158236361794872 0.03889968771085694 -0.012140139816157799 -0.020993402417034946 -0.08137411728627558 0.045834054888560856 0.12145830223943341 -0.09106661276285549 -0.017918282344612575 0.03631879404509698 -0.0029854879462759905 -0.09294178224752041 0.3156010800177529 -0.1838721267682629 -0.06184957807611705 -0.0014523803510373976 0.070851273620469 0.12736399999480494 0.051761658267046824 0.11620841349545895 -0.03214353193160348 0.12173741940533692 0.033648420137868604 0.16624607335665645 -0.047117443564790244 -0.04696549309366878 -0.01100714951985355 -0.011997453604989473 0.19111152138493856 0.012126124256215705 -0.17180471094308425 0.2518681184436155 -0.06769080131165163 -0.040568945238454245 0.39364159002288157 -0.004559736048522226 -0.21268872379743162 -0.04160217187873423 0.15644875614661066 -0.17343163880413046 0.049155017046771124 -0.09030785924900145 -0.0728633932289294 -0.026418648826524036 0.0416595099762911 0.014822027032497178
deer.n.01 -0.13445120505828484 0.09296901418973988 0.03555323190143215 -0.09606606938907494 0.08400569342746633 -0.06665896419506569 0.06329321424328406 -0.13451717107563108 0.0541463438323331 -0.13405723351394483 0.06721963080639975 0.05526099882247492 -0.1625303309651485 -0.08868806710997693 0.14050537235089072 0.22830136609506835 0.0030936888339782535 -0.07001909525371072 0.09436396943481855 0.3871546929570702 -0.14905209009045342 -0.017498783523847178 0.0015222989950074179 0.08752164325847257 0.1509558560650419 0.11411821971825226 -0.10283503081100454 0.16144694358304446 -0.0222848706662083 -0.054938271789612005 -0.12714460902995306 -0.18540677315128043 0.0015987451401411835 -0.09636278689797721 0.15532917784782546 0.12245380782983543 -0.04286459982919831 -0.00386494072472808 -0.17603198636482736 -0.027223774093798295 -0.01631892670202255 0.15686562820306318 0.2927710505966529 -0.012101683135784438 0.31382139171341183 -0.06309195528016119 0.07689988106807413 -0.1829924891338373 0.11430011871551793 -0.05441623873016586
lagomorph.n.01 -0.02508090857003917 -0.1239536985126968 -0.08014755735423404 0.1852887709835605 -0.22961957450544787 0.02519045655203873 0.006507704170905651 0.11522425835360028 -0.030365576520100017 0.010831999712052138 -0.027488570394902455 0.013203180378217898 -0.04073271159597816 -0.08418605645775953 -0.19298410329199261 -0.09107082357891529 -0.09343047425419915 0.188493853091184 0.1221902383829826 -0.07190555938482175 -0.17563930034543238 0.19360811996748103 -0.055031384157660054 0.06101308917692677 0.08552305538550169 0.12333725388714857 -0.042555471947935776 0.23638014296655013 -0.14377053497489442 -0.13297558980571225 0.2840442699956325 0.03422612061986872 -0.037816364435710806 -0.04878743350103148 0.15568463935854324 -0.08684056775925772 0.03342953282088413 -0.09916574243545102 -0.2526065667962448 0.17548444042757852 -0.039116043525643754 0.12661006119191384 -0.1924345268076963 0.05294758561391631 0.15212754202541012 -0.26428490675772276 0.1418120507410893 0.19386144178961542 -0.08066706169674394 0.17191983281506987
saddle_horse.n.01 0.22263212923374198 0.1940261073701277 -0.10390842435810307 -0.11104100089476528 0.2826326590031443 -0.00869526834066856 0.03370168752676296 -0.051175958134953216 -0.11092513596532445 0.0639053384486415 0.06007463425575115 -0.06271586684147167 0.0017364233429334557 0.06435484690372394 0.06833326708616846 -0.12380710857233142 0.2563586978887454 -0.0949575342781643 0.08549077379937474 -0.07390924956998912 0.08624871231512929 0.19907021886599036 0.08934099998125926 0.19524764775467598 0.03333338394373629 0.10470154062299929 0.04286774938642998 0.15974622848109446 0.012824902634236277 -0.029710625569750616 -0.10720627067866889 0.10055580864692824 0.05653514761802184 0.042386283267605324 -0.16309392944598464 0.21791214581412882 -0.09392491276054864 -0.048098557436523394 0.3984979011921302 -0.014983502428377836 -0.3069679990992259 -0.10082439833009037 0.10472896997483697 -0.18553023689823722 0.08344047077836665 -0.10665993074521289 -0.023835094454672728 -0.08398220080857705 -0.01848642015181361 -0.08005261777244346
squirrel.n.01 0.19270307008747908 0.0049147719500969664 0.036797199217143264 0.1324176375789952 -0.19522505512526492 0.09216219528357554 0.0010290755180195697 -0.05020013379719951 -0.03306951333053183 0.1438264176790722 -0.04370995152005306 -0.15864104635693077 0.10739503090289622 -0.1714233552602033 0.23243867254354003 -0.0036734414406964402 0.24320885905165784 0.100144851426431 -0.12601069887152 0.02186350490367634 0.08926477142936741 -0.11949849747634568 -0.27612324799268595 -0.2753822319949503 0.03220151941995732 -0.15952141867483785 -0.3455125684858593 0.013779663751017255 0.08004159052940948 -0.1251572306684687 -0.08433407488154496 0.040868647726416844 0.00415926069412786 -0.24455988852321633 0.0602959171573265 0.04280400681192227 -0.03886656468112075 -0.018131769406585833 -0.10340945233753976 -0.04393833289148369 0.24979815633355068 -0.03493330712198666 0.16556977889781788 0.08289988004189389 -0.041584740464982006 0.13100874290509507 0.029382211412120177 -0.0271717342454426 -0.004668971811538591 0.020491584068032753
rat.n.01 0.24648601188655267 -0.08812999885828558 0.02012643648494239 0.15118753425617873 -0.16980339609011585 0.0596639464210427 -0.10068954412862528 0.08073505728412647 -0.10346573267277426 0.008488012022014052 0.3217252291269628 0.0972154205203722 -0.07415232438726263 -0.08414033322618364 0.040803378073783245 0.18104096951515922 -0.041557668000832645 0.09095745987234198 0.10515635189482396 0.06700296077971163 0.01409439676476683 -0.17091008642956954 -0.12701351924006707 -0.4818235665704962 0.0371188491870977 -0.01957172741504774 0.001734414342541681 -0.08464151462837309 -0.08326658597151808 -0.059126822012269126 0.033917122681417854 0.0733112555201917 0.005400147615889744 -0.061753842312653115 0.03294838712146999 -0.04847620458573016 0.010969925008732694 -0.10319064635441443 -0.12918684409404146 0.022862116646664047 0.1992410361818628 -0.17678655654916067 0.12330862599135319 -0.02466352712933483 -0.25636998900760544 0.2306039965197681 -0.10467846331839994 -0.06393106402373762 -0.03203812133819114 0.0508096679972178
old_world_monkey.n.01 -0.020754677792000225 -0.1572314286073159 0.12140908722880812 0.20366137615417199 0.025009312901592036 0.17735420649437658 -0.024585710007826986 -0.08264908157566798 -0.13369667040354646 -0.12224802658235315 0.20905023880422513 -0.22746127524822937 -0.013645133441977167 -0.001671329388594443 -0.1367108221613369 -0.1246800630265798 0.03803712189085617 0.04121991004458056 -0.03532688429025469 -0.19707451072114057 -0.11782338377805056 -0.034862481204872786 0.293286888681491 -0.02559015323601706 -0.017306490626291623 -0.26538085839115166 0.04458060212180933 0.08803638495129644 -0.03344883081448416 -0.07208474339590887 -0.010693035641822949 0.1016299237085901 0.009436656245257967 -0.2028820371165646 0.18342672709317367 -0.21818089987674028 -0.05299124695847931 -0.14384329793371206 -0.12740631439966962 0.1636752620420622 -0.14735856780639847 0.06370288871608751 -0.048224675446597795 0.022783414885398288 -0.02107997710039526 -0.036666924710546375 0.21766866916626343 0.09596017593408615 -0.254097725874558 -0.13708531540339372
pinniped_mammal.n.01 0.08645627418705086 -0.0628505279565939 0.12224825051898777 -0.10512057613531177 -0.1434601841796649 0.08103497228466909 0.041299659074422304 0.060649427276306324 0.061822958781249784 0.029741980582054912 0.2537052231988621 0.22541697993044532 0.1150090823994206 0.16372402950078693 -0.10674766823457892 -0.04425949120587107 -0.2729536251982412 -0.004954800914602806 -0.003627761379218899 -0.12041448980500506 -0.01167859049553124 0.2570227312104349 -0.0032564479825747963 -0.26411701855000913 -0.14483496633768844 0.0814787880947768 -0.23292122917170438 0.05995172892588782 -0.07466886370941847 0.023886777321148325 -0.05393898807501983 0.07271745946028225 0.23785513215389295 -0.09444054818055361 -0.07501557552624903 0.01547413705100065 0.23283457652263082 0.0930578886791244 -0.03878377114310897 0.05410996280299567 -0.2518778661955705 0.010825894806053872 -0.11579509928695791 0.11977452008731938 0.019338403714752237 -0.26724706892941463 0.179354289975985 0.145495523784701 0.06551232258942286 -0.053255585344311684
wildcat.n.03 -0.1965149795364394 -0.04748337954772345 -0.34700398721749637 -0.11187960879219674 -0.14996806356776163 -0.15473897362200342 0.1585106401381943 0.18058145024299707 0.05372135429105804 0.024156880158732085 -0.022029036103510497 -0.062396019228589214 0.07006514569424824 -0.008532648913399228 -0.2264057432992378 -0.02564769829980502 -0.038955474456230654 0.1861979980125647 -0.2679800157318606 -0.14857941681693448 -0.18017339235420612 -0.1160914245476307 -0.10825497965888159 -0.07397165327957199 -0.028704185161167944 0.03648126310776351 -0.12971500110223808 -0.012911534928884662 -0.021461033143065793 0.3020272233249633 0.28109856226989033 -0.16050954026843972 -0.019626672376679772 0.1426233744170234 0.045786745988185995 -0.11485724141172098 0.07818407825304709 0.06433774173004758 -0.0755527158425576 -0.0609566870388808 0.17209709620988148 -0.03478301997473553 -0.06603752282192402 0.1529324331477666 0.1078196762875804 0.03487668838983436 -0.07979973876468291 0.03672416312434634 0.06412026684943556 0.14292453358845889
domestic_cat.n.01 -0.17771007458757676 0.000677320263205776 -0.34203199964009867 -0.09571316372264449 -0.0282379362213092 -0.09012976281929008 0.15648268075923194 0.12255063485045602 -0.026935028646653182 -0.0023088472207165706 -0.020914018859965723 -0.08112023119463734 0.12578759160789998 -0.023577589947908924 -0.2858940290737985 0.01345089959334711 -0.014676963448861468 0.11722591456198778 -0.1832975937006548 -0.13618291746989108 -0.18993722378277791 -0.13890205116602772 -0.07421327448135913 -0.01389488939414634 -0.014388426997456705 0.05670471361019885 -0.1317744920308726 -0.056689021672206664 0.0006945299667144127 0.269376817950533 0.28826958051811635 -0.14899675045874386 -0.028127207933318507 0.2587592185890737 0.08709583670951636 -0.06331069877341461 0.10219533399896187 -0.06705582339856314 -0.14844252918672826 -0.08264945487647736 0.1540064206957005 -0.01233834583517089 -0.14469339853693353 0.09834254908263035 0.1504456715726877 0.09873393918564939 -0.14161702891090358 0.08574332605422373 0.001276640156401759 0.1321055244880149
big_cat.n.01 -0.19715522469371147 -0.103400815445031 -0.12115610610799411 -0.07407863317826667 -0.022074917702907575 -0.05732676878263987 0.043390151614224465 -0.11373890931889562 0.14164295226245743 -0.045887326367260936 -0.09576845593078855 0.11934441395875553 0.09527357950597305 -0.13591783826378423 -0.16697509891375253 -0.12033891825492601 -0.07016480824728709 0.08163342951679929 -0.1701566190526395 -0.23281570456927253 -0.1121365682488178 -0.1207796499388107 -0.018435811225657326 -0.10152920011261095 -0.12048821336927616 0.11047090522817757 -0.29593762784476707 -0.006455654902966445 -0.08479932687834318 0.2536837793322894 0.28887094029416566 -0.23037050067081127 -0.024484194873946697 0.06909695727459837 0.061232172956459066 -0.1335646948590042 -0.11155240182092116 0.11169018867953394 0.07393151442836049 0.0633110597430616 0.13778357984197218 -0.051943340531910395 -0.19546323085890524 0.16219041261694514 0.061400367045406495 0.01445939590050744 -0.13150129456463633 0.048243440053893895 0.14151454247735468 0.09671444570959736
toothed_whale.n.01 0.006446133846440462 -0.16610086102966767 0.1438685337482345 -0.0004348750328774924 0.13560484778735998 -0.07094009558823067 -0.12332640242712217 0.06212980179125909 0.14289829626012823 0.07340232171216195 0.07183679962344061 0.045234938566594204 0.2019185309304539 -0.012607954624862654 -0.20904689997454795 0.1693295992978864 -0.14594892746561522 0.015711604285776278 0.013766827105970957 -0.1271526191635729 0.23414707300034834 0.09598856821086206 -0.0633439812779936 0.047814588180415375 -0.08297769022985142 0.17163611325139985 0.017268978753610293 -0.11924058322776251 0.08069848959617754 0.12969361625238418 0.07984986269766475 0.19980603251086235 0.14872792936622187 -0.0433824571225875 -0.0390822726002455 0.17316541218528847 0.21141492803111198 0.01786492678340991 0.03614519402703119 -0.03587240781945566 -0.11150996503980266 0.13534579744697675 -0.17850561907216875 0.03805682412758151 0.14767942065303175 -0.3718976507143477 0.30247525661860203 -0.015572895169890593 0.01982234953498647 -0.2331913897604311
edentate.n.01 -0.26992817251337237 -0.1539455422489226 -0.1095486337952703 0.07531710585542296 0.19493008920917518 0.1317237230014374 0.0030875179840091508 -0.026635165372760783 -0.07919047624666142 0.0020066911932181096 -0.07617151697026443 -0.20947559402820856 -0.07576854468014692 -0.10485482011684291 0.1371046505583933 0.3267192486019705 -0.04015983138129825 0.12636342993734725 0.18960720438940323 -0.14756908502210545 0.04778513769168914 0.00427927983782518 0.1003509590082024 -0.1050527742003611 -0.08537023991815862 0.0635401597736914 -0.11401838686165038 -0.09332469444165244 0.18293943357841277 -0.023160628454964586 0.048487668868026045 -0.00224025597098807 -0.02560532810186438 -0.28447480380033796 -0.04024907994776921 0.09247052642617541 0.08217865803054523 0.004841076469760845 0.10518582264261196 -0.2437156529355754 0.03326274406079208 0.10954591896783376 -0.06612942359820606 0.2382136354514232 -0.09816950817603955 0.0057373413716460785 0.11986927706777338 0.06089789433871623 0.12928776949031323 0.1464187412997602
insectivore.n.01 -0.12193814406726136 0.07564798901503098 -0.09407670546517725 -0.09307944809806787 0.023128379923298612 0.06390907351349025 0.008504646832208565 0.02317566671314079 0.14982094356079667 0.22668773429456374 -0.07466857198518302 -0.1002380249098965 0.09743672051173413 -0.05815542601565098 -0.19580493906672786 0.12213177632805873 0.22629420304813233 0.15106298436959492 0.02388599948806898 -0.11361076980635862 0.03168059758367729 0.1572813093675124 0.09752125477602674 -0.09535927112524642 -0.09806752211069326 -0.1306705826878924 0.13361770670118847 0.18771010866060672 0.1360148676423871 0.10983701366886932 0.0035657429573555484 -0.0239815273920475 -0.07682451643137193 0.0222244878499788 -0.10006828716055963 -0.1493488723054621 0.06268255583167352 0.18331948622039262 -0.011529238218264536 0.03886237962331306 0.0556951735515179 -0.18319196245806793 -0.16683327543272014 -0.31726926367655317 0.08701253427514831 0.30257429352916526 -0.03766671757949725 0.07386372857779334 -0.22758917462548262 0.1639739662727898
leporid.n.01 -0.0298527540119044 -0.11770117307867967 -0.08395352225786745 0.19151991505579813 -0.21890879998709323 0.02408290697599871 0.005967937242377284 0.10361820719853121 -0.031068794128621045 0.002074390412239169 -0.03451362808941157 0.009502223901709102 -0.044090266362418244 -0.08229321505516898 -0.20183843481694821 -0.09511310340281846 -0.09203288524921083 0.188983648413419 0.12231071225207553 -0.08496775973479836 -0.17952970885606598 0.19667669010797842 -0.05304908133571711 0.0699867283833192 0.08806790764453297 0.12091839614505642 -0.03928177595943875 0.24375528370228508 -0.14426855656136214 -0.13803834123457798 0.2808189308483649 0.0326174039488765 -0.04402628613594389 -0.051806445956283684 0.16851482456405112 -0.0792903838912211 0.029599525081895593 -0.10029055737035014 -0.24720124332325719 0.1781971135472327 -0.04201666676959913 0.12906566493004631 -0.19602997956510282 0.053892807892288244 0.1483343796575447 -0.270892899522064 0.14364124618042823 0.19845880342691954 -0.07724465120435828 0.17639241253501914
seal.n.09 0.0895839077278729 -0.061098685314956706 0.13198569561068832 -0.10878982518167046 -0.1472247868037093 0.08433635723179737 0.04763485801117482 0.053872238281336866 0.06495144934000532 0.01983531450871965 0.2500415532341975 0.22911676118118768 0.12897468185527525 0.1625014458414666 -0.09737499578818735 -0.05765088654664861 -0.278453113330572 -0.004110862930522447 -0.0005621142123001599 -0.12160350963771907 -0.007003766003940553 0.25796613418952047 -0.0011615560568506394 -0.26760043350156526 -0.15007999314649015 0.08816251023881543 -0.23615254132043517 0.06040076554542755 -0.07600973947317749 0.026325884143882983 -0.05631994362790035 0.07177470489266369 0.24925429527792517 -0.0886266789447986 -0.08132332245193656 0.01923626091034051 0.2258139642453026 0.1029781111444883 -0.038122261877382914 0.06424104187410755 -0.25939766524684205 0.0062368085368123185 -0.11222337019423709 0.11990858088207841 0.016393742483194598 -0.2606631385904903 0.17573943061467517 0.14089673123845067 0.06350172703656772 -0.04498907594476174
sheep.n.01 -0.16044689335052253 0.03739378186233523 0.268240849328571 0.050050893059478 0.08316075302944162 -0.04530908971564674 0.022785184035630165 -0.15689764479017584 -0.028865139116347024 -0.03728715686429935 0.037847393972688256 -0.04042471436657247 -0.17524451146590928 -0.017542469600383397 0.17170989128534134 0.2590855373492311 -0.04882058496471784 0.021552680320498997 0.11725377531249517 0.4057151987773941 0.059509928907216465 0.06282855340937073 0.03951479909526752 0.06765299273531557 0.1946579967975096 0.07437116640060697 0.043689724117799165 0.22413297952458042 -0.16567446993663582 -0.14494011252872163 -0.08427621004986735 -0.04285414222344794 -0.1272059829181368 -0.05806862094863838 0.13719236480485533 0.12506168186527272 -0.009219379439241324 0.017241259928980603 -0.30680768107071665 0.0865660718944146 -0.05238753039896766 0.023820847086431493 0.21037388805854595 -0.11285652908130013 0.15793417588528702 0.12210695003940282 0.044108473909927004 -0.19264306819525664 0.0010577114234759013 0.04994474642473934
new_world_monkey.n.01 -0.11920634693054437 -0.11337934330573404 0.02991811982447012 0.32239318783062704 0.09222834287891028 0.037945964765483536 -0.052768157658663134 -0.11702184236051989 -0.17988558466090182 0.017325670247658968 0.09148877816295986 -0.20240965907914818 -0.017400479674213952 -0.046355935204765206 0.10398091490194247 -0.11574464344451449 0.024187429604230152 -0.03454185358436443 -0.0033682380701809053 -0.19006761992978016 -0.08523593419971343 -0.007778350613371016 0.18542220032846876 0.012937341568734913 -0.004072159423937459 -0.2782944370925192 0.1146722117487926 0.06875505929362706 0.049514504949141426 -0.06640588191483292 0.08761783083165002 0.20107924544585737 0.049814360551687906 -0.2669586027423838 0.13621275840221644 -0.19061414236227497 0.0770057506962403 -0.08927955965696964 -0.028458304903504324 0.20464490299394805 -0.11259927099881151 -0.0026604987653590204 -0.11043347203122282 0.09181494001525753 0.027914377601182216 -0.04158678114468359 0.24237636572085902 0.15090638249155647 -0.24044234145767499 -0.1819105549096168
anthropoid_ape.n.01 0.00410338065827855 -0.057384466096738 -0.01764744883685094 0.17326642380505253 -0.04113251542648695 0.11027188445448378 0.027147508148076146 0.17579962642372995 -0.17655703751282953 0.08991157590581654 0.19616046225851924 0.15412206484537722 0.054632514537591076 0.3179564586266149 0.13649712778390555 -0.009319723358332662 -0.15011264213979253 -0.18137679000822987 0.07328586429325663 -0.11872817417309116 -0.07123400088585015 0.13859832243168665 0.10931511665302333 -0.002873868762422639 -0.045561203112044764 -0.2919755701593866 0.1207462815961215 0.1513389816744759 0.08268510723226802 -0.13128874186247919 -0.1190066777837135 -0.01182335801121605 -0.02629127061261449 -0.10611009286345023 -0.01431246048076233 -0.31901638338451704 0.18322759983597392 -0.0900714079497141 -0.1140076512038152 -0.10658027234736557 -0.10872001886522195 -0.08549071256363325 0.19162961498584824 0.17908725657607066 0.08126397238760785 0.12715329353178767 -0.09967314590040081 -0.005640817247560974 -0.19311617136086875 0.0634387757601604
shepherd_dog.n.01 0.01940096900199518 0.05624951731305545 -0.132687511279296 0.0059584361437761005 -0.09514254483633246 -0.06060126877562004 -0.07877356069219715 -0.0195586028885789 -0.06848805467343291 0.038711210256380885 -0.2893250746194353 0.27497895882325196 0.09378592532843287 0.15315306491476638 -0.07331283352185682 -0.3495481858176469 -0.09738489995914698 -0.004400678634563803 0.024578324608253512 -0.009336760283369553 0.030690407694555392 -0.2224096598306299 -0.07476867048561102 -0.01362091207388149 -0.05127093360676244 -0.11975857863877114 0.12648973570423996 -0.2043449052409025 0.16459798378653104 0.02289757241646332 0.06587195124016422 0.08068961809723632 0.02064740670079042 0.03581853709684038 -0.049010768276211605 -0.16438289544019857 0.2770831691854926 0.0761775041230498 0.06617406160513925 -0.24918011963338121 0.15650515836524156 -0.14221693511756106 -0.09010530592541803 0.061169818510944045 -0.20715612737406613 0.08965555382463687 -0.2007700181754927 0.14083601530303042 -0.05512637289622173 0.11064876196285608
ape.n.01 0.004167293795774535 -0.05691344041394991 -0.017580934065710634 0.17454787543080286 -0.041240538186396 0.1098866121551071 0.026895646049263176 0.1758729060519941 -0.17709231105017334 0.08972641091241916 0.19664528532873565 0.15413037615980682 0.05448019669170759 0.3184336737510163 0.13605215172701074 -0.009521248398203268 -0.1502716223715625 -0.18175055110041943 0.07315390668058742 -0.1188452627658412 -0.07150223939662993 0.13895613531664816 0.1094686491592064 -0.003068303042837001 -0.046366657426161584 -0.29163099452142965 0.1213354070157776 0.15031176483853442 0.08194521690715076 -0.13155360188510007 -0.11910185864205904 -0.011604298905955615 -0.02566326713882673 -0.10642872942581291 -0.015218723153053521 -0.31937407133095286 0.18271640485255605 -0.0898582748263119 -0.11361953122011618 -0.10628682625299965 -0.10909209264873375 -0.08563875028269241 0.19165374312857886 0.17912750717616494 0.08119492064371145 0.12689270081904988 -0.09956400329545409 -0.005582039922932156 -0.19301827891133452 0.06375904730793214
viverrine.n.01 -0.15483891260566704 -0.06826518810014535 -0.2938094061355793 0.04225599573501074 0.13361068254300307 -0.09603949836971715 -0.046403384305428085 0.11644355773561747 0.007765778791046687 0.0897420424016888 -0.35059096985083243 0.04866678836949665 0.14391253646269977 -0.03031837708508723 0.022325017705459277 -0.15355739654620462 0.07764773265955197 -0.011908854729259438 -0.02619125933576314 -0.177271117562123 -0.05904012608369806 -0.20283623942346196 -0.13634922279619113 0.29502316047578264 0.033080410182910615 -0.016222732316651865 0.04196555660228026 -0.014193707828048983 -0.07251600582627947 -0.05892071710053726 -0.02508354091071219 0.07256303446405989 -0.0974998768403123 -0.11607949280170324 -0.3096715589064569 -0.04621868519709895 -0.02976715048220089 0.03564659966037659 -0.020056115240705254 0.13112431463903082 0.03903160305438293 -0.13250169718933869 0.0059982173731350456 -0.010056447892539632 0.23487004116270807 0.03603954369954983 0.1830554860008455 0.09232838704250196 0.20634992786783032 0.08702970728210276
thoroughbred.n.02 0.3608572065033761 0.20847571622162667 -0.048625055937854336 -0.12777633735841532 0.17457552792718767 0.05862278843086332 -0.03037356639677698 -0.010121136429793575 -0.0666081130174158 0.06563095218697818 0.15463455083999955 -0.09036908515879374 0.008103094670712886 -0.01943449694415167 0.013110422133242969 -0.08073694910310633 0.3129646183757153 -0.19335282542176152 -0.05850150902630334 -0.004356366558763517 0.07738309491950907 0.10461955283190348 0.05391140001583612 0.1164495742673571 -0.00799581200170377 0.11992539633178699 0.047810349167977204 0.19181791009425128 -0.034193117186278967 -0.062392602925805424 -0.004423041880302339 -0.022608606208241407 0.2024253269880523 0.0070788477893717035 -0.1554952210719827 0.29281644538971846 -0.06255063515049152 -0.0710171573407647 0.38937790680305595 0.020857713223146505 -0.2162197978788071 -0.0552718749512775 0.14133321177429709 -0.15940486549590407 0.046101098776963376 -0.08688599992532378 -0.0639099517450148 -0.01809913684906997 0.03543216151762566 0.03234007821874847
spaniel.n.01 0.07488881087268738 -0.04173415691101012 0.08619581182060795 0.05068978546477483 -0.10638311087710381 0.034043794453363786 0.022750850361355202 -0.1577335143774612 0.006596262200540606 -0.14951926007483288 -0.28403866464486943 0.24086823928999632 -0.04027168203762988 0.0409821378448558 -0.06849061661677484 -0.18087641103336496 -0.07691960056418164 -0.1315893555074674 -0.08777754796951566 -0.11583632162719286 -0.05909133196760781 -0.10458524438740668 -0.16456360825717753 -0.03589295181741581 -0.051732990041195186 -0.10221944266873072 0.2678780659503831 -0.43854167514122916 0.10346028028442668 0.0706867401817751 0.03917092685032123 -0.008722168917551674 -0.13095700323219123 0.072526945100368 -0.13866147369099122 -0.15153346987425628 0.016768228320965715 -0.004102761208313034 -0.13096365616605032 -0.02964104206376216 0.20562570599178248 -0.02004196100447897 -0.08316841989661618 0.13663488974974491 -0.09272307649670364 -0.02359333852098882 -0.20816549309841853 0.12915948832766866 0.2430126836819286 0.10655662073362306
dolphin.n.02 0.007947020615299059 -0.1605099045902318 0.13915317361611523 -0.001656057570475701 0.1394047037847028 -0.07428696268055371 -0.10597718993899548 0.06420259628642483 0.14869456614915172 0.0740569104818041 0.056216210378848046 0.04483866960790617 0.20267411687774006 -0.013206636908783756 -0.2179914406084618 0.16743407380234582 -0.15263940886058094 0.005357655805252567 0.011179894503781403 -0.12877113105435928 0.24622834411305305 0.09956564019636846 -0.061223711359474076 0.04551863957967149 -0.0807412903189474 0.18244260036943072 0.012324756205933509 -0.12078448245055315 0.08765677470324706 0.12487374227217901 0.08989130919771712 0.20827173253521222 0.14804339415969225 -0.036912304467043466 -0.024114571523188015 0.17028339763128159 0.21402151005980508 0.02369601653158885 0.034302443098062414 -0.043509827616264755 -0.10311687266292628 0.15077765601101512 -0.182172419159451 0.03735721348865392 0.14355578102946667 -0.3786102204634899 0.3074876920962276 -0.01952164092906966 0.028508881536816938 -0.22734324771668027
homo.n.02 -0.1227554570513503 -0.03563876946619681 0.1058227228877807 0.1473965272187858 -0.07843981533197748 -0.1353659852833358 -0.13658968086374987 0.040646598549503636 -0.09768924467587221 -0.07382316296508674 0.10316693641952726 -0.2529498302085166 -0.051858762248603106 -0.03031976753339076 0.06867487973775685 0.01986798003801715 -0.26750072483092774 0.027715571617049115 0.07753619449745422 -0.11048248265853146 0.03387971393234273 -0.11927970158280106 0.17086140208784795 0.033001711864704006 -0.003008620046190804 -0.2548137188803726 -0.03379309041854271 0.058972325934413164 0.23115986669388502 0.20283600424719037 0.07360161580582947 0.1480475652476094 -0.03350115964568282 -0.04161481926328218 -0.04168193274396543 -0.06113413258479481 -0.057722346223584645 -0.07268534702475847 -0.3072335806881191 0.17113191918743523 -0.22171052834681185 -0.126389288069606 0.23445518527430623 -0.07483560293000398 -0.021369231752450518 -0.05785836504498285 0.20439071173767642 0.12901601253947748 -0.2278641115898816 -0.07894612083564513
pocket_rat.n.01 0.23898575685902845 -0.10807305692998924 0.010230056044292604 0.14038164710537274 -0.17295476896765632 0.0517995031694757 -0.10816361847430157 0.0880387209907567 -0.10322871893962002 -0.0031703797554755424 0.32550217547522126 0.0904110469364563 -0.08013941570438567 -0.07259255391405509 0.03809508181547634 0.19418035129924513 -0.030145449094967053 0.0822654542663725 0.09736031596395732 0.07024283102396871 0.024607172072035517 -0.17971160010708548 -0.1315455646697049 -0.4934999104116563 0.04601217905920501 -0.01834170972363299 0.006413610662231884 -0.08791535875785282 -0.07042021349542962 -0.07408768223620517 0.030540626316323014 0.07334827562405076 0.008241985980459603 -0.054897609840150394 0.02954067991834491 -0.04747864108858366 0.006627192167144159 -0.09942791657028105 -0.13238637638123807 0.030207067087644927 0.21346051714758543 -0.1996051914139212 0.1334025056816883 -0.03544754639054281 -0.25108113549259525 0.2373856879903193 -0.10740984210989689 -0.07676047322504173 -0.04043321735526322 0.04695882888603941
vespertilian_bat.n.01 -0.20105707575521486 0.0406200584133119 -0.16883500742009624 -0.08697632308529792 -0.05637272366368538 -0.08532062027793902 -0.03909655201813746 -0.04355125063023996 0.10862047827389491 0.12580720712928412 -0.16964321629198276 -0.10448079425188883 0.07207824153174511 -0.06218241216695036 -0.11192654232503498 0.03619732059239602 -0.06752700342772894 0.06426406082412833 0.015873499133100332 0.08521569592774784 0.22008288449993835 0.26639233639370735 -0.03433393765304618 0.13295806861451984 -0.05985076708757933 0.002756365893890284 0.030799656286867448 -0.12094948660792024 -0.0684716958280658 -0.09311234051093127 0.13618417016114093 0.04820215650534466 -0.01839207553250949 0.1772883432215242 -0.02254815122778497 -0.01985888980003444 -0.21269688988256444 0.12602255873330703 0.24762252633811374 0.3243305945322207 -0.1307112799928042 0.33587137537403977 -0.146809906267241 0.1264642645921 -0.2484287902785577 0.10738030154436652 -0.011348774580480923 -0.0058432417554085845 -0.12005477169898345 0.051029064304792975
workhorse.n.02 0.3336125830945824 0.10174970918870385 -0.09354179354365151 -0.15369041601869704 0.1357314666610617 -0.028801507597281964 -0.07067900072613235 -0.06781238348557783 -0.053791276868070934 0.07112700697665883 0.25657368439885914 -0.1675232078093469 0.08242012850356728 -0.03209713961114477 0.03513129852107375 -0.15299879650998832 0.3145184608371384 -0.2032135536169252 -0.07000239391249867 0.0010662748146997659 0.1484367574577373 0.1499844018280321 -0.0738394944247868 0.12797733459177085 0.09031814321236205 0.08811157145134316 -0.09432782642375862 0.11038502672782949 -0.03556118276045527 -0.06052374217097299 -0.09571644876794445 0.11189571663463234 0.09337470559636754 0.06219363189481572 -0.049601418702386865 0.15189130773909015 -0.10859442721847329 -0.0943473364847476 0.3853256985362431 -0.07705033384722666 -0.19217529991615553 -0.06771757532604468 0.0042713823827589675 -0.15947782478200168 0.0495494411665943 -0.11105156754979845 0.046824568717959675 -0.02543175319466205 -0.10958259842787979 -0.12723067624631312
kangaroo.n.01 0.00029756965763157525 -0.20175995109931227 0.03997328865253484 -0.01993092055564697 -0.030900864221201727 0.16082882916732594 -0.06562081654550864 -0.032928879174218 0.08034051392411416 -0.05493176034216752 -0.003546748304793162 -0.11714958373576874 0.2306262019713277 -0.20625426488858672 -0.11283238818813413 0.16737655520440237 -0.09258543769194175 -0.14037664998309038 -0.20089417964744857 -0.15955238410310793 0.1798009312547954 -0.11994315383828018 0.1938049743783525 0.03360309654767421 -0.05255053442538668 0.03123341712272757 -0.0811041306433651 -0.1540316636286507 0.13924603363859897 0.11167429261880019 0.16219396729010482 -0.20232313404326588 0.11725454592412628 0.0010628702955442684 0.1722559248876714 0.028318469744621984 -0.2052473795310688 0.03076786900407439 0.23530145408206574 0.20915900346142166 0.08773988661773183 0.050444967580601165 0.028286416523068816 0.007405882894272176 -0.1506873881382812 0.029277369679946277 0.23334041572393807 0.05218700361305657 -0.33211981924120965 -0.115711813871433
goat.n.01 -0.223317693113451 0.10196368228078544 0.16021607464272147 0.0895721364259728 0.020365274187664182 -0.14246997965780597 0.09836258706657304 -0.152442587058779 0.018170363919386763 0.023095686025766317 0.08107823997452433 -0.1230542094658283 -0.10167959942180023 -0.01867254205613414 0.2608765454705128 0.28752535209362495 -0.01599973520703544 0.028547731076208303 0.09615527185439876 0.3086033412336697 -0.000271322449185488 0.01782492188711792 0.014944792577623888 0.1650753018696642 0.1878522320412511 0.07227718664561951 0.04050374869771297 0.1916030427144923 0.04953363079426583 -0.11070264847295427 -0.1915196893159188 -0.13115998388385874 -0.1565821306557791 -0.09203376447962541 0.15935723913506303 0.120173666252337 -0.0067176992126825345 0.08646596287359463 -0.1246863121069769 0.04650022034396574 -0.16087646200734704 0.07533450966368985 0.011036881696048786 -0.11141941989003526 0.29654333713118836 0.0070662289524918934 0.10838211708155226 -0.21011866726014986 -0.16441622291752234 -0.03911156140505137
beef.n.01 -0.27848014863146053 0.007816743900658413 0.002743968179808903 -0.023781626563021012 0.14744803551206398 0.05012151030985917 -0.018443991963152585 -0.15299124457171898 0.04531325020419971 -0.03451567822640604 0.1460091062453149 -0.045265662112143355 0.020983588290823082 -0.17248512036880617 0.22018161879155812 0.1420473215980903 -0.04816412512204048 -0.010072434423504549 0.12683988905237675 0.4183442640013908 -0.18561116539996353 0.11055159991927498 0.10152551832609454 0.09709966841050384 0.20532108334398202 0.09985428590977244 0.03134086785340534 0.2566940115448691 -0.09030561763232149 -0.06124576983293143 -0.03859545380329337 -0.10395857602238336 0.0002769055345686786 0.021861048685660786 0.1519291119124095 0.0799416194102857 -0.07002708430832422 0.11756051384633746 -0.08984896971390943 0.05180354816457267 -0.17756760488655224 0.059800316393562404 0.08753765070231594 -0.20140808049240363 0.29145872009988805 0.012654789224936085 0.06933967438384528 -0.19504347567583333 -0.012644931511878033 -0.09702683485394771
wood_rat.n.01 0.20940922882768045 0.13465319011424076 0.23841179221905454 -0.1249604279689632 -0.03605559898654163 -0.05578683760135138 0.04828893844231338 0.005565394007905467 0.0390728046604469 0.02624022864316817 0.14334361501710347 0.12431658046266972 -0.04160466330295868 -0.04556422015024879 -0.03834031040669819 0.1355321114052334 -0.01032659342389657 -0.13108244073465639 -0.20660706180094687 -0.042008286434623295 -0.04249600861830617 -0.0409306218168458 -0.0228894632082007 -0.24572475067154573 -0.11176167360295068 0.21741731524329902 -0.2590250773099976 0.08918987614462637 -0.05394418105635324 -0.028190126353261614 -0.1789036953047242 0.18181741926195588 -0.013087026952083802 -0.11801398426546669 -0.0991008343642135 0.10522812904228894 -0.033881123308113166 -0.10969325333574631 -0.09920652539893188 -0.19398131394569837 0.08549166037734188 -0.02874150686134291 0.07597417010911957 0.22501912195185908 -0.28919338122119986 0.11035294487572235 0.2444973238761455 -0.041144989583795685 -0.028307760486446683 0.2204677019293823
great_ape.n.01 0.0076766426439846425 -0.04406932022342472 -0.026440526649032257 0.17123539185252734 -0.04385802153825092 0.12034259555908627 0.04025778457646593 0.1871563754249282 -0.16948289963251037 0.08651512652939 0.19656353221691378 0.166677474997116 0.04689252428082083 0.32938053252137517 0.1327197470046945 0.006922048148425539 -0.1643986443752527 -0.18003201130884394 0.06897518258710995 -0.118521863864769 -0.07936064275697866 0.15179159260059558 0.10705382865985362 -0.018699225590616386 -0.03864011758351105 -0.29050722295611464 0.11976785019650817 0.14033738493750855 0.0815670052160578 -0.1264666501615637 -0.11563636873183719 -0.0212500275522495 -0.01744782510849095 -0.09914824195220405 -0.02300889252579737 -0.3242178312094856 0.1979361699658514 -0.09432164298770841 -0.10666742870876234 -0.11178180123385814 -0.10921556747234772 -0.08909732654625019 0.20226753225788383 0.18754780610621918 0.07637962586567716 0.134307659837317 -0.09747014696488952 -0.00706374378796417 -0.1852639771950583 0.07180422443388597
domestic_sheep.n.01 -0.1455224928853526 0.012176853115623804 0.2625136207832065 0.025928639789810158 0.0942428726832305 -0.03193740458336013 0.02818282447665926 -0.1411154203673835 -0.03346101388278479 -0.027542724860000107 0.0407795151698507 -0.02446093203296054 -0.19977839887637652 0.014281138180590383 0.17514919474060678 0.29401485375708075 -0.05439226710491065 0.010196732757741652 0.08472540688360153 0.4034866616800077 0.058633379478906955 0.06175431865216334 0.02549518403088755 0.05578763314395764 0.1475196779420509 0.07835745051192654 0.061092092546827625 0.2214656996507244 -0.18440213939272565 -0.1316166743040646 -0.08749058077986312 -0.06380063311925319 -0.1298717433048471 -0.03485649118353282 0.15146661041263065 0.10200319085344155 0.0009243463010217851 0.013002597308222227 -0.3194424475174332 0.1012973658291468 -0.025134568778825552 0.012828962124901084 0.25544027423897736 -0.11119559034658884 0.16531569639815308 0.1358031527809276 0.0749291869607465 -0.17924159902810147 -0.01739606452399951 0.07003821364573731
toy_dog.n.01 -0.031732478930320746 0.10376887413526545 -0.040024638196328656 -0.1435374502108406 0.011912258407481235 -0.0751157137597252 0.04097468282732431 -0.11432913454499143 0.09470445993525427 -0.0401568799507433 -0.17626732854664037 0.24084903600826052 -0.1418166693376766 -0.012062631926066658 -0.026014798935586128 -0.2634751354516322 -0.010057415287935944 -0.16247412427441615 0.09965248044375095 -0.2106597019959054 0.11465329314925624 -0.05526059045705956 -0.0914732212609585 -0.1476869550748199 0.13482278978443707 -0.32559913671949486 0.006038003322092979 -0.2534496640172416 0.12163435286546599 -0.03859595786055241 -0.026531366161052165 -0.029245888891731634 -0.014055061451013819 -0.0252590232024833 -0.2058242208479092 -0.20703189243572775 0.18647701834547592 0.07986123911181568 0.1080455975683406 -0.06759765869095896 0.28142280901620403 -0.004042619170237287 -0.07333229393134952 0.09761869595273867 -0.14467864129434826 0.02804303426680235 -0.12345481011124733 -0.021704397407365086 0.2185116310959431 0.09475470847064695
fox.n.01 0.016965569680369125 -0.16731133605237158 -0.24461456300847018 0.08351359950981238 0.140051915322685 -0.1726145559523876 -0.16408846272894753 -0.1053386809450632 0.17617920811869653 0.052952486624847354 -0.2430737670833114 0.010203437936967704 -0.011887114949412293 0.12659725960277227 -0.0415489602825339 -0.17515513075041045 0.009390034336530198 0.05655170203590699 -0.0420017610947992 -0.11395857007938885 0.023990321357623773 -0.06104254419202176 0.22426335041122167 -0.11321464303612923 -0.06270149622545426 -0.14417974989642565 0.07158333683062452 -0.0516982242969122 0.24620028990193565 0.1567013796183113 -0.1672340082576921 -0.014211784790610499 0.09182424920567615 -0.05409537631654122 0.05350470873183156 -0.15514474638681797 0.02997303309570208 0.20479546532305007 0.011544151523891244 -0.14114814491565622 0.11596839202477989 -0.19048131934194598 -0.05469409287917004 0.16907571113832476 -0.10191312951740604 -0.10107114698894934 -0.3524912871057062 0.09506913483353963 -0.0632100080696551 -0.006662845327163628
ass.n.03 0.28867708955604987 0.008024417130156145 -0.07322223134004867 -0.28715907511385674 0.07268154773050012 -0.021772881082566455 0.027519169374100743 0.19421130477154327 -0.013341196808190788 -0.023944688636058656 0.07941037517656412 -0.20194133034403225 -0.011490879560466793 -0.006222178876225246 0.16773856696267658 0.05098930883838984 0.19401634583824445 -0.06684343926656114 0.08466503397146127 0.058840426163941285 0.1670663599478226 0.04863464789203326 -0.18249880660752654 0.08355970653075301 0.029013143949025613 0.06441155105158441 0.0952746777230145 0.19842530334521669 -0.03750344654529015 -0.027025035690386157 -0.16048282234601693 -0.00838946809468208 0.2109653291488689 0.1362026267813629 -0.1088831466256937 0.34540584103917915 -0.018622295173852617 -0.1431290837516651 0.31613122911822217 0.13809915000104414 -0.13866622226767586 -0.06269972354886506 0.1300541337666308 -0.1599965403246624 0.04797123792480064 0.031879798672724856 -0.09114718400764846 0.02263984577031184 0.000760440145245996 0.06915648162177533
rabbit.n.01 -0.025227244186520812 -0.14377384418222036 -0.07673521758255633 0.1815244096380398 -0.24801589537282545 0.03692883012587888 0.005624251689751271 0.09396642689845865 -0.03402110877061481 -0.002473854826671186 -0.03708772342951759 0.02401924415703208 -0.024334849665006906 -0.1015292295742345 -0.197080244682186 -0.11006794175204451 -0.09370119340540695 0.1869079300842525 0.1386608370409584 -0.06142169619533961 -0.16961121780281324 0.19885037265668243 -0.06208787762409794 0.07019141625463789 0.08100625334691959 0.11040271159810183 -0.05027604248461732 0.246999822102131 -0.1444877544631968 -0.12181406183677283 0.29078421490506184 0.008526413168465665 -0.039998622206420725 -0.03679302056165342 0.16074904880492213 -0.0764549912689529 0.045814571351906176 -0.10043318234859745 -0.24392776628765436 0.17910952675132202 -0.06606306874987149 0.13375109223729056 -0.2064995194909099 0.08566418223847894 0.1425328781828793 -0.2732037527250078 0.1586103299834288 0.17733433258878087 -0.06494957836316252 0.18885486258686815
proboscidean.n.01 0.10182178425092327 -0.13008023321346562 0.10765884850626606 -0.1281628019327491 -0.12661683827358924 0.01875862942525368 -0.0895063768030668 0.0840078417094071 -0.08503504762955513 -0.07108811628475553 -0.1514210628774665 -0.15252688797489353 -0.11266054606915546 -0.17593768792448344 0.01030674360131562 0.1121535528971739 0.17945168278458426 0.1726611608634499 -0.14239149221441788 -0.09354160987129566 -0.1505859892933256 -0.21989483291793205 0.11609126585986006 -0.06266646514081292 -0.22987422393646847 -0.11410061719866861 -0.04490882580092508 0.06420630994468225 -0.06872691797681033 0.06808671155079421 -0.05637732799713168 0.019609085461420418 0.03557789756106948 -0.14282005602244743 -0.0963619661134718 -0.11741605783443144 0.07179285773419555 0.0370432956080768 0.09671484021605767 0.25531086548112286 0.13781759410913547 -0.11075856346715784 0.18340362407140068 -0.16566657522672884 -0.36956788508338867 0.2810602990066636 0.15031553572126247 -0.013442401019133045 -0.15802096308374508 0.013292126565054472
baleen_whale.n.01 0.050626715269661074 -0.16031606650181318 0.1775910717324576 0.02686656417271499 0.0899755424151604 -0.06466933094037072 -0.07019351482412291 0.0631873024609944 0.13018274431969226 0.06516526477210494 0.044093036733466894 0.08220101358791514 0.19800916031331373 0.03815216996408677 -0.17672117292568926 0.18560753501285102 -0.16072398131356508 0.021156773850397635 -0.02655830972663964 -0.16430402890981044 0.21311107394717624 0.13209131345521116 -0.053617907241454044 -0.02060045758883021 -0.11344957722609512 0.12001364656186037 -0.002874818014191218 -0.10820654265866081 0.03215732233795457 0.13669358970700693 0.0927983619095187 0.19146826950668475 0.14352323906097525 -0.07257197075465777 -0.01799611551224889 0.15100496638836458 0.22644800196430656 0.0253624887394276 0.013133843573700284 -0.014740558399338171 -0.07801077392970125 0.15395905506358668 -0.22122122331676 0.04672627229697886 0.13928136301446217 -0.40898706214363156 0.28993527450560813 0.028894721221022813 0.016968576551236812 -0.257838474105288
wild_sheep.n.01 -0.22719763000996307 0.16706833438575555 0.06018201182182551 -0.01903104405229833 -0.015345522253017968 0.0223016668115294 0.15699687901357984 -0.005952623172468691 -0.021459165339706238 -0.06878769171053659 0.17621325823744263 -0.004744502878191768 -0.11687809983985026 -0.06707983398822628 0.22837189735968183 0.20381803354875913 -0.061098728200925635 0.06972921773283258 0.10891616103497671 0.329054702730885 -0.01094135998072668 0.0120620842183202 -0.029950935608516048 0.16429700396313537 0.12133298191907392 0.1247002032951912 -0.07097014124117401 0.2830420293502681 -0.11410907203437262 -0.12020782862192986 -0.05858273652514971 -0.1911503740011408 -0.05303424327067519 0.03166793588238894 0.2770764506904447 0.10740177251432428 -0.057042409860124745 -0.06180678144947258 -0.15222812939783356 0.05201832542690674 -0.0871223812929194 -0.02612598842019381 0.11654185118637334 -0.04084345702447114 0.14976387568821586 -0.027389816663013 0.0679603506528923 -0.3291604455733 -0.18229473397724544 -0.12712496382607708
eared_seal.n.01 0.09354569405328861 -0.04856582604389514 0.11706155048459724 -0.12373072674801505 -0.15143729432698044 0.08973959586709167 0.03223530919813195 0.05244796667831587 0.06039941466164256 0.014648365728309364 0.24505786536373583 0.22650973729977103 0.13984368667999125 0.1682627515317778 -0.09968928004635398 -0.05851562533256248 -0.26414083384951037 -0.00012804522252592452 0.009805933947632866 -0.11269023607769728 -0.016975904536030557 0.25229992832176534 0.0023387185611786617 -0.28528962434061383 -0.15682547102979644 0.08428686102119351 -0.2521821190860247 0.07737018806474927 -0.09973743213979491 0.01928574473850769 -0.06769921814721493 0.087442394165528 0.25869635473441377 -0.08801990802282929 -0.09485491420635347 0.017916083416511613 0.23578278540227807 0.1117449949622882 -0.05013852207903479 0.07147129939800279 -0.26013322527642185 0.0005127267062449201 -0.10113539936069493 0.11731646613365537 0.021369928786563814 -0.2452250362871863 0.16139666207233702 0.1341549773837647 0.05632876717970407 -0.047675764571533226
dairy_cattle.n.01 -0.35442853347025627 0.032978459620933015 0.03154324820418642 -0.028980859701894447 0.19854506503357036 0.053610934248782285 0.008737044503448803 -0.07612068720218702 0.031046981598359537 0.044987809436962914 0.18104022856738788 -0.02420461498711259 -0.03441311394535705 -0.10886313518857564 0.23383954868176335 0.12916618982498415 -0.030054600887353976 0.07576383392577984 0.1419332907407052 0.40476813182346916 -0.14260855207169534 0.09515229399857168 0.02950382544250684 0.19307840035061358 0.2469861731405975 0.10474863465391188 0.0574260654007594 0.24859734132738026 0.017194632972474925 -0.024815386409744594 -0.08224591098958868 -0.07394451711246236 -0.060305418311016254 0.023843852719264536 0.10547492801872002 0.12617477338011066 -0.1158759738530143 0.1764452500144195 -0.03853206267600324 -0.02324387906194107 -0.1771041594742988 0.047940008224382706 0.1271114595524204 -0.13500510437715074 0.22200034081673156 -0.016316792663469384 0.07134081576057166 -0.16429352259231914 -0.0626876079155235 -0.10871020389346535
watchdog.n.02 0.11394400115170009 0.01958915442837037 0.08159603957655417 0.010692438053704328 -0.0804746483576444 -0.05997597502251986 -0.06277166321207445 -0.00584583596741019 0.08614616123489859 0.034020829796738976 -0.2831125089929652 0.18846486668505588 0.10677370302166356 0.2128798638601026 -0.2436207571098202 -0.08049848096334032 -0.21150781668119037 -0.04376672064361442 0.037514224411000996 0.0055282420395133215 0.005483435394357732 -0.1912519717229602 -0.19170660562815706 0.017775212972125465 -0.04365634905496532 -0.1197051732578563 0.1959910564542368 -0.20034416268558994 0.04783626260379346 0.015331821485338008 0.03208277912063971 -0.012737049898044094 0.016234323259103487 0.20743000723991192 -0.019619874833191102 -0.25193545553884883 0.2364044919635554 0.024445945475603522 0.041038062968774214 -0.25241319551837155 0.009864941373696551 0.003299451623354542 -0.21353920278704375 -0.06784627305778575 -0.2564682713057228 -0.07969817163713762 -0.15814278833570697 0.06339488842575687 0.16452215818750274 0.10380965501092075
mouse.n.01 0.1047407028995544 0.06858230195990966 0.1022439692558086 0.15846495966047328 -0.03323830701988227 0.16194312902735786 -0.13700449059350273 -0.09400516628263456 -0.05352182651973292 0.09920835623992331 0.10266929467773382 -0.07806247497794469 0.033866527498751804 -0.19115595651700557 -0.05285674859774082 0.08534700419597249 0.18664045770372004 0.17206267593722713 0.12039378419423319 -0.16126514910601614 0.017149288802949435 0.07129878599167691 -0.24507123471755082 -0.3810382091669617 0.06280555215894883 -0.21756499145410385 -0.2744677712944301 0.017964808097675096 -0.04509097413395231 -0.011170717415681397 -0.11491601477284748 0.12265227796123727 0.18401864018878655 -0.24218521429367454 0.136381986476147 0.018493228828540105 -0.13727105784092156 -0.055617522722124106 -0.014138477881257855 -0.0259915517119382 0.09263325443191074 -0.009960213652839826 0.1662512833552727 0.04394426516733524 -0.214126000781098 -0.005217047168031534 -0.016563900655588125 0.006496476064180578 0.0468773117816584 -0.0390718600912348
bear.n.01 0.11645527990128138 -0.043462443260288156 -0.14934603989357567 -0.004307980443251608 -0.22396102927707737 0.08423026542894088 -0.1950319840729737 -0.011153919792834985 0.133411982653105 0.1591450006966644 0.02809633510359983 0.007408191255607063 0.06050343503583989 0.10560600250835248 -0.12429062364014652 0.16350964954789343 0.049460782545354125 -0.0376861179064667 0.09160071518841201 -0.006906081944882927 0.1417250370947292 -0.09267417400376439 -0.15458147904286842 -0.046131581272293706 0.1110609761513306 -0.10929119826957188 0.12708806034262352 -0.019060399180304836 0.22458082097794327 -0.12264976278779953 0.04482281843186324 -0.15797745271671104 0.05815861507075013 -0.04107220022611742 0.044587183249035114 -0.09019439066788937 0.09918516857998436 -0.23181771354287242 -0.2795149479763662 -0.3322749669690646 0.13125641289387827 -0.11541032646249484 -0.18027858342334832 -0.1688946658568378 -0.10048845772738663 0.042161375338616296 -0.13866064530994046 0.14670141220233615 0.14515231322613165 0.019612363070865127
draft_horse.n.01 0.33187176169357874 0.10212864166025075 -0.08143201029154543 -0.13713631778323349 0.14011931320564583 -0.04843335303594864 -0.08919797336814675 -0.0714750874666065 -0.05244220419036519 0.08221383029224553 0.2599899378799804 -0.1775972294761536 0.09232038386839524 -0.046808656469923625 0.03569585995849198 -0.1601987320180778 0.3219747659749082 -0.21158264381714917 -0.06608863732376753 -0.0022311611215870522 0.16065000401353635 0.16551050012488194 -0.08648879773476312 0.12816277252382277 0.1200253045453154 0.08358388495304941 -0.10339205669211521 0.1063243415886322 -0.03383314888562303 -0.07386380171334213 -0.09980472404450244 0.1031117820257747 0.07667352757394395 0.04331448533187778 -0.05477409584474541 0.13637032385566486 -0.09968091315514364 -0.09992875040893731 0.3858222099364693 -0.11395212368679791 -0.1763973191256573 -0.05959491596029033 -0.003743981616069258 -0.15832069622955428 0.051404307929693416 -0.10957917991110094 0.04196372530667743 -0.016742190056450206 -0.1289154823958301 -0.12499857910068256
leafnose_bat.n.01 -0.14147504138315206 0.055223492040162615 -0.10475402771859949 -0.012341837037767716 -0.03469077052508194 -0.1070220105029892 -0.03190787291616524 -0.004794308345437788 0.08353494195879867 0.17273647168728026 -0.1436847993416626 -0.07531081748807586 0.04696288341704471 0.01690819234218211 -0.10167313298254606 0.1355864069427934 0.03576719166956028 0.11422807741718134 -0.04556941928028411 -0.0690239757602337 0.20758314262843325 0.24503038950637704 -0.053080097838880916 0.11359071652099038 -0.15124268674618124 -0.050365696483526186 -0.0007809531034037904 -0.09463325605564626 -0.1082860633147144 -0.025192209611974367 0.14841455329401762 0.14790097449947215 0.013688319106769096 0.2200424448392173 -0.10045035745295819 0.06702127058925984 -0.16531163834541607 0.09394810252647316 0.22843833660152293 0.3435714196427775 -0.10700760982021763 0.3308308054608523 -0.09403042680095688 0.22411081592446377 -0.21107351080911918 0.12137579798691818 0.03340930940663706 0.051049395035498824 -0.06960003884965049 -0.03456304589515436
ox.n.02 -0.10234593450355962 0.019379121479491973 0.2598960149558621 -0.03958797598355466 0.08189654422641789 0.20871179592700118 0.11166078661441346 -0.058082154994561146 0.02095744607123013 -0.024040869409292436 0.1737820352655615 0.02083140573696571 -0.017830021720132937 -0.049542375615576985 0.22781777367507408 0.14808765558957948 -0.05145648192086026 0.059661371044891325 0.2274513958029257 0.37811237593984276 0.02850631967920375 0.0092225173961365 0.07827401973232294 0.12848367974517608 0.18183016363087728 0.0811030906821436 0.0825393137879139 0.15685630968732014 -0.11178754851904368 0.059331244995910866 -0.06720043556076531 0.0017348316100564342 -0.03902406351361179 -0.08290876122643051 0.05784231161196355 0.0037064090739066646 -0.1595550279378754 0.10485351562856877 -0.06909153153630106 -0.02996954670321454 -0.15827758654911808 0.1284865008162336 0.25024599217224763 -0.14743723638240908 0.2451955501761602 0.1161480503131331 0.07047627483238039 -0.2936253285744731 -0.1424458075295314 -0.05004917395206568
elephant.n.01 0.10020325815888365 -0.14109014980492518 0.10925138454876303 -0.12788397028784862 -0.12212533129659277 0.011040789694223162 -0.09504336270527658 0.08129290529502735 -0.08229827048044651 -0.074634791564542 -0.16073058750898325 -0.16822031300430323 -0.11421662497152361 -0.17673070098929686 0.007186941161041848 0.11026047267323402 0.18020478416206862 0.18237496840919878 -0.1402761623833877 -0.08547297261287813 -0.15340548398921305 -0.22300587057730872 0.11887764837883551 -0.06337184738152399 -0.23525292616726762 -0.11254988694028673 -0.04707963727783673 0.061531834946540964 -0.06683529784416928 0.062083501282319514 -0.050283553419564586 0.02389526911410426 0.029291914573626242 -0.1486085427284638 -0.10037018253911589 -0.12325396586242772 0.07173530361022565 0.031385703502608185 0.09488936829671965 0.2544329856002688 0.13999111544356033 -0.1070044151347711 0.1850700601348546 -0.1708029983810251 -0.3776624324168868 0.284452978634452 0.1465719452501467 -0.009698531527492475 -0.1583694963283226 0.02193570156650529
weasel.n.02 0.14571079347222357 -0.17532460555807544 -0.08600622139127452 0.10186635274201378 -0.12383679147747427 -0.006192044780110473 0.05147788077931106 0.20768025306884316 0.23610281199527194 0.18853779202041435 -0.051285369746188615 0.03996329045252298 0.1443200812315717 0.23364563818734246 0.05736408613276698 0.004880679898704606 -0.32179247178056325 -0.2032926085011881 -0.20086959491538436 -0.1008618218292297 -0.061633466836247874 -0.06597123862065477 -0.0502085469921473 -0.08768891475943895 -0.0980857842593108 -0.04392992981765796 -0.053633495213470626 -0.122779166833837 0.06742458901902752 0.1528578138447503 0.16561209145668024 0.14453602558532996 0.1521417957594774 0.0828269913861847 -0.05900734379565223 -0.046032837638946555 0.031219268487270448 -0.0745082159241127 -0.32442187501940517 -0.15679235443977618 0.08619369460854272 -0.08178558552496279 0.045282608940248 -0.0011503604871384485 -0.11599949817244189 0.15924400078866477 0.05906596457846146 -0.0442827676939535 0.23220472913188936 0.008867196403193634
vole.n.01 0.2145993597071143 0.13352672907227672 0.23701580291747718 -0.12254907143131526 -0.036004164286737604 -0.04122165072577473 0.049158362522903475 0.015053166872000728 0.031318147915830125 0.028881995000505135 0.12831363748785957 0.14092177028394925 -0.036535005122091964 -0.05026316355390673 -0.033552636473313024 0.13837063256768292 -0.011805915490693973 -0.12046658465448036 -0.22067405468702003 -0.03838453150846449 -0.04179809888927185 -0.04881595656657621 -0.027715484975308964 -0.2472936365405407 -0.10452851346950302 0.22198599250999013 -0.2561418784478225 0.09365623172190743 -0.053534943668363665 -0.032682706816946246 -0.1961502075665414 0.1893860771783452 -0.015984044762918058 -0.12002044573153374 -0.11641615147793619 0.11939983442642141 -0.04213666075108963 -0.11560895621776449 -0.11108523094848068 -0.19246121642135 0.10162429710151558 -0.028562234153204344 0.0750151418131718 0.22720426926532275 -0.2815325514424841 0.10527905107999623 0.2556019974277988 -0.026832446805636782 -0.014369401772290338 0.22573490451551648
swine.n.01 -0.1434298951935931 0.21411832950653323 0.09176325715126231 -0.014519245189720293 0.07455436656039176 0.10974532662165745 0.10045831535217406 0.032805710355044995 -0.13638276217997602 0.075359358540638 0.19121498100707057 0.0396986634204696 -0.1949225275848375 -0.019554378998484376 0.026338945932235357 0.1543466812935285 0.2223942341267594 0.1999633146090911 0.3188447537580937 0.10526185905273606 -0.0666390102676862 0.0920943467405721 0.01010394965043648 0.29123748441659314 -0.1528670930963338 0.030862509665953667 -0.10338738641696128 0.09986011350068093 -0.029950873338512835 0.006006244689162953 -0.1343276338150702 -0.2901576132587451 -0.10604234028178654 -0.22494555770537178 0.015903123865295354 -0.06648231688949259 0.057560851989950666 0.1576108656369607 0.13517682782899068 -0.16098976423837258 -0.10380248927751098 -0.01675834982070668 0.08989436196910301 0.10965856204667272 0.09964288006674923 0.05639062392975155 -0.04470262075633715 -0.1580310395223284 0.05381664142884247 0.129102708956871
lemur.n.01 -0.12269212245576483 -0.11847689696731067 0.14257712646071516 0.2870518867835097 -0.04767172955773934 -0.05542595980247848 -0.0528462594132779 0.2094273581006926 -0.12775742196786619 0.039846047998547844 0.22382406965382537 -0.12177155203514574 0.05406837416767778 -0.04583006998475563 0.09823727540322959 0.002388675534218548 0.005033932798771007 0.03528699252373737 0.024587108783528273 -0.21985594553858692 -0.05797076548024514 -0.05723379992677947 0.16251839067095547 0.022010073529118657 0.07224267386857702 -0.08693562399649052 -0.04563214106989104 0.04474352441680731 0.25854084898242163 -0.03188828982135558 0.03214689249733768 0.23962732609677545 -0.15940379781024389 -0.026931403450344983 0.08352113906031433 -0.3215473251038288 0.11905102827963503 -0.04826073881735693 -0.2463813614758583 0.06972249151264566 -0.2730881857953687 -0.16395180795881548 -0.01053961148231304 0.01406078568237194 0.07476865075912406 0.038413072870138565 0.037067892657939513 0.10807806155002234 -0.19479023122699882 -0.10760706512447209
retriever.n.01 -0.017606383918694006 -0.08784831510890488 -0.0028310991996461504 -0.11806555749739656 -0.09811148578733794 0.051818190508713995 0.13527280136502542 -0.030451401594705402 -0.12467681890262582 -0.16689158691443098 -0.24308506083754083 0.27941862003690743 -0.021860029166428565 0.057152731425211586 -0.02070673312376297 -0.19493703161941892 -0.07163227835949469 -0.12954131054868437 -0.12496662563995585 -0.05492008732231361 -0.23526172928209152 -0.052252247852161815 -0.04090749892445836 -0.0851919403043324 -0.00417583159572221 -0.10387738321003112 0.16771971810606226 -0.40540241442394226 0.038957877251876966 0.15461197350791722 -0.002358361974135641 0.021985496863304994 -0.16159187514418719 0.11518203521109524 -0.1876831712163597 -0.13615928528432744 -0.043420141178880954 0.04730097013418704 -0.08443047885898888 -0.14286798115285312 0.20021422752614831 -0.1383901006277343 -0.10760108637194513 0.09429747686767448 -0.07345653976438912 0.0030713716701690247 -0.2898558231757718 0.15201444165509148 0.13218239385595726 0.05988525329749277
pachyderm.n.01 0.10253618118242228 -0.14303992808868773 0.11024530657194181 -0.12908895429707273 -0.11961792021764256 0.0122843672923454 -0.09372834561769781 0.07941819594845498 -0.07978399238869159 -0.0724956892681127 -0.15859566785380805 -0.1669819508402968 -0.1132112736541085 -0.17658627479339783 0.0053481338658520495 0.11085812409172524 0.18168953885932757 0.1805218211125746 -0.14204432996265584 -0.08464251740841008 -0.15564088511349833 -0.22496078591565155 0.11975665496824066 -0.06264787028049489 -0.23393099521911256 -0.11324928135200996 -0.04713497390840711 0.06190296552578471 -0.07038250608409563 0.05858521824210857 -0.05129473292465062 0.023628340399999927 0.02807858551498196 -0.1494877498593875 -0.10027172264654308 -0.12281723718210055 0.07002844059207029 0.028942309213383755 0.09160983257209841 0.2531872229016017 0.1389473846174459 -0.10536037179127597 0.18654863319215925 -0.17123202510114205 -0.3758264822084798 0.28584673227695223 0.14404421930556624 -0.011109308070105042 -0.15832548201847732 0.024850259704729424
old_world_buffalo.n.01 -0.08420244127761067 0.03232569690276507 0.17580480972897775 0.13729857672418955 -0.008542930030567155 -0.11485401343126193 0.12151805186589366 -0.10874871555709101 -0.09428498633665464 -0.1170728990696904 0.11921307623289533 0.004238132734971074 -0.17252434585175985 -0.20038846362423293 0.26993435385639997 0.20972799897677918 0.008161355275972261 0.16328780991546632 0.2122059712573521 0.36428987338324165 -0.016027107149954943 0.13329941918338803 0.032064524215733685 0.15572585337163286 0.10651825874664844 0.08745992839472531 0.01894607459265559 0.12605181051651757 -0.06922225814300584 -0.03885889515689656 -0.1654794816305033 -0.1599039326518569 -0.16458427798454212 -0.009085650669916632 0.16506588771774522 0.14321372829437978 -0.051018987841334414 0.10542705368470548 -0.1301731570344546 -0.027954394299290874 -0.07980126092015755 0.052756271279814214 0.09311371913987262 -0.15186411352881124 0.2686065454258229 0.004139309157962446 -0.01645181253715574 -0.22128278087543948 -0.04106322068026834 0.018439400581112354
tree_squirrel.n.01 0.1830603014356291 0.04594583627918192 0.038223034163337485 0.1345626082450704 -0.1794852307014063 0.09667467334079079 0.019925511096213155 -0.07918905070784732 -0.022715603101815605 0.1257353982346661 -0.11414217247935243 -0.13178432400841109 0.05895711341418103 -0.2174659146908591 0.24965262872393634 -0.05381413657224677 0.27635487872569603 0.10205718789671549 -0.14562038939355051 0.016020491552916315 0.07903807241248757 -0.0803580803860398 -0.28268826750751275 -0.28646252346819867 -0.014533720114133996 -0.15575153220946827 -0.34946992742990673 -0.011339940546391052 0.11444474019176917 -0.14906748726015892 -0.050092507781698326 0.05891617541186655 -0.02809388754616138 -0.2405617057935778 0.04336909804376841 0.048506795135571726 0.0012703159438954496 -0.013292508044503704 -0.07054614314604032 -0.04404976833276866 0.23891383352241743 -0.0537217546284556 0.16384946202877262 0.0977902567287871 -0.04628329599646516 0.14154432482022156 0.0081514358228368 -0.027494693608658225 0.004536672248639693 0.04765822844301278
procyonid.n.01 0.21562552562604453 -0.11103638588973956 -0.19284835379449175 -0.04259893625686102 0.1508078885161304 -0.07793630915191233 -0.09369127071851212 0.2669654536901313 0.04194316691509556 0.07101764474785412 -0.13731847709384545 -0.03402321957025993 0.06218808405877283 0.005787394476322697 -0.09659205898249072 -0.061214808705937124 -0.05116231944930654 -0.03155093526821155 0.01300168808438005 -0.0073151014931837404 -0.0022179957446445808 -0.15694870505739136 -0.023354767488289074 0.30069902295160655 -0.07473025293667582 -0.17318344301216118 0.1398664398723602 -0.12978459019200095 -0.01160399746196615 0.1869334822518018 0.2633345390133931 -0.17929167495858792 0.11477072384114954 0.022761350176986498 0.0846841692802539 0.15841326039964568 -0.0952166182122169 -0.1434550196230599 0.00026431202908964665 0.03256964626024954 0.038526489590704226 0.21008925131931017 -0.358965170292169 0.11937132490852889 -0.22573422727120293 0.051134844573302814 0.026368922100636127 0.09588809463647592 0.043939234927501146 -0.03454874862802045
goat_antelope.n.01 -0.1593959807659329 0.06963819403693454 -0.07844203330187789 0.054767778466515135 0.13402686358465987 0.012480930071090782 0.10090880894668304 -0.0763919634087144 0.022619398715985922 -0.05143166662041502 0.16661434800536118 -0.13611945063523992 -0.12361843927704426 -0.10460412405848671 0.19304636716404677 0.0606880152693979 0.07153923617575622 0.09659780045481255 0.12137879463017025 0.43900781784825715 -0.038333708744068475 0.04649302467461765 0.105272078181417 0.13333177081856223 0.12045693972768733 -0.07814188068779616 0.013096944265441496 0.14923709292671472 -0.26111557423636755 -0.13735263344800602 -0.15276248582298185 -0.2075923641924416 -0.013096845186827648 0.06076725706440129 0.2111241398510557 0.0639202325677181 0.017726708188325526 -0.015240778445359341 -0.20318674962627187 -0.019001914463594595 -0.1103328067519555 0.15820537079036814 0.20857368362869846 -0.13572044185335733 0.18115400817182453 -0.03661461414977312 -0.08936205162472168 -0.228609939847824 -0.018484333678262722 -0.1044756786077568
